SVM-light Version V5.01-TK-1.2
5 # kernel type
3 # kernel parameter -d 
1 # kernel parameter -g 
1 # kernel parameter -s 
1 # kernel parameter -r 
empty# kernel parameter -u 
0.4 # kernel parameter -L 
1 # kernel parameter -T 
T # kernel parameter -C 
1 # kernel parameter -F 
1 # kernel parameter -S 
1.000000 # kernel parameter -D 
3 # kernel parameter -N 
S # kernel parameter -V 
S # kernel parameter -W 
0 # highest feature index 
1000 # number of training documents 
696 # number of support vectors plus 1 
0.019434421 # threshold b, each following line is a SV (starting with alpha*y)
-0.30461067932459473528439275469282  |BT| (SBAR (WHADVP how)(S (VP (VBD did)(VP (VB serfdom)(VP (VB develop)(SBAR (IN in)(S (CC and)(S (ADVP then)(VP (VB leave)(NP Russia))))))))(. ?))) |ET| 
-1  |BT| (SBARQ (WHNP (WDT what)(NNS films))(SBARQ (SQ (VBD featured)(NP (NP (DT the)(NN character))(NP (NNP Popeye)(NNP Doyle))))(. ?))) |ET| 
-1  |BT| (SBARQ (WHADVP how)(SBARQ (SQ (MD can)(SQ (NP I)(VP (VB find)(NP (NP (DT a)(NN list))(PP (IN of)(NP (NP (NN celebrities)(POS '))(NP (JJ real)(NNS names))))))))(. ?))) |ET| 
-1  |BT| (SBARQ (WHNP (WDT what)(NN fowl))(SBARQ (SQ (VBZ grabs)(NP (NP (DT the)(NN spotlight))(PP (IN after)(NP (NP (DT the)(NP (NNP Chinese)(NNP Year)))(PP (IN of)(NP (DT the)(NNP Monkey)))))))(. ?))) |ET| 
-1  |BT| (SBARQ (WHNP what)(SBARQ (SQ (VBZ is)(NP (DT the)(NP (NP (JJ full)(NN form))(PP (IN of)(NP .com)))))(. ?))) |ET| 
1  |BT| (SBARQ (WHNP (WDT what)(NP (JJ contemptible)(NN scoundrel)))(SBARQ (SQ (VBZ stole)(NP (NP (DT the)(NN cork))(PP (IN from)(NP (PRP$ my)(NN lunch)))))(. ?))) |ET| 
1  |BT| (SBARQ (WHNP (WDT what)(NN team))(SBARQ (SQ (VBD did)(SQ (NP (NP (NN baseball)(POS 's))(NP (NNP St.)(NP (NNP Louis)(NNP Browns))))(VP become)))(. ?))) |ET| 
1  |BT| (SBARQ (WHNP what)(SBARQ (SQ (VBZ is)(NP (DT the)(NP (JJS oldest)(NN profession))))(. ?))) |ET| 
1  |BT| (S (VP (VB name)(NP (NP (NP (DT the)(NN scar-faced))(NP (JJ bounty)(NN hunter)))(PP (IN of)(NP (DT The)(NP (NNP Old)(NNP West))))))(. .)) |ET| 
0.63916233073079797843973892668146  |BT| (SBARQ (WHNP (WDT what)(NN day))(SBARQ (SQ (VBD was)(SQ (NP (NNP Pearl)(NNP Harbor))(VP (VBN attacked)(PP (IN in)(NP 1942)))))(. ?))) |ET| 
-1  |BT| (SBARQ (WHNP what)(SBARQ (SQ (VBD was)(SQ (NP (NP (NNP Connecticut)(POS 's))(NP (JJ first)(NN constitution)))(VP called)))(. ?))) |ET| 
1  |BT| (SBARQ (WHNP what)(SBARQ (SQ (VBZ is)(NP (DT the)(NP (NP (NP (NN web)(NN address))(PP (IN of)(NP (NP (DT the)(NN list))(PP (IN of)(NP (NP (JJ e-mail)(NN addresses))(PP (IN of)(NP (NP members)(PP (IN of)(NP (DT the)(NNP House))))))))))(PP (IN of)(NP Representatives)))))(. ?))) |ET| 
-1  |BT| (SBARQ (WHNP (WDT what)(NN song))(SBARQ (SQ (VBD served)(SQ (PP (IN as)(NP (DT the)(NP (JJ closing)(NN theme))))(PP (IN of)(NP (DT The)(NP (NNP Johnny)(NP (NNP Cash)(NNP Show)))))))(. ?))) |ET| 
1  |BT| (SBARQ (WHNP what)(SBARQ (SQ (VBD was)(NP (NP (NNP Mao)(POS 's))(NP (JJ second)(NN name))))(. ?))) |ET| 
-1  |BT| (SBARQ (WHNP what)(SBARQ (SQ (VBZ is)(NP (NP (NP (NNP Dudley)(NP (NN Do-Right)(POS 's)))(NP (NN horse)(POS 's)))(NN name)))(. ?))) |ET| 
-0.039882674669674628153970274979656  |BT| (SBARQ (WHNP what)(SBARQ (SQ (VBZ is)(NP (NP (DT a)(NN fear))(PP (IN of)(NP thunder))))(. ?))) |ET| 
-1  |BT| (SBARQ (WHADVP where)(SBARQ (SQ (VBD did)(SQ (NP (NNP Indian)(NNP Pudding))(VP (VB come)(PP from))))(. ?))) |ET| 
1  |BT| (SBARQ (WHNP what)(SBARQ (SQ (VBZ is)(NP (NP (NN Answers.com)(POS 's))(NN address)))(. ?))) |ET| 
-1  |BT| (SBARQ (WHNP what)(SBARQ (SQ (VBZ is)(NP (NP (DT the)(NN origin))(PP (IN of)(NP (DT the)(NP (NN name)(NN Katie))))))(. ?))) |ET| 
1  |BT| (SBARQ (WHADVP where)(SBARQ (SQ (VBZ does)(SQ (NP chocolate)(VP (VB come)(PP from))))(. ?))) |ET| 
-1  |BT| (SBARQ (WHADVP where)(SBARQ (SQ (VBZ does)(SQ (NP (PRP$ your)(NN hair))(VP (VB grow)(NP (DT the)(JJS fastest)))))(. ?))) |ET| 
0.46312768380057733885735160583863  |BT| (SBARQ (WHNP who)(SBARQ (SQ (VBD starred)(SQ (PP (IN in)(NP Singing))(PP (IN in)(NP (DT the)(NP (NNP Rain)(NP (CC and)(NP (DT The)(NP (NNP Singing)(NNP Nun)))))))))(. ?))) |ET| 
-1  |BT| (SBARQ (WHNP (WDT what)(NP (JJ historical)(NN event)))(SBARQ (SQ (VBD happened)(SQ (PP (IN in)(NP Dogtown))(PP (IN in)(NP 1899))))(. ?))) |ET| 
1  |BT| (SBARQ (WHNP what)(SBARQ (SQ (VBZ is)(NP (NP (DT the)(NN wingspan))(PP (IN of)(NP (DT a)(NN condor)))))(. ?))) |ET| 
-1  |BT| (SBARQ (WHNP what)(SBARQ (SQ (VBZ is)(NP (NP (DT the)(NN definition))(PP (IN of)(NP (DT a)(NN cascade)))))(. ?))) |ET| 
1  |BT| (SBARQ (WHPP (IN in)(WHNP (WDT what)(NN year)))(SBARQ (SQ (VBD did)(SQ (NP Thatcher)(VP (VB become)(NP (JJ prime)(NN minister)))))(. ?))) |ET| 
-1  |BT| (SBARQ (WHPP (IN in)(WHNP (WDT what)(NP (NNP Olympic)(NNP Games))))(SBARQ (SQ (VBD did)(SQ (NP (NNP Nadia)(NNP Comaneci))(VP (VB become)(ADJP popular))))(. ?))) |ET| 
1  |BT| (SBARQ (WHNP what)(SBARQ (SQ (VBZ is)(NP (NP (DT the)(NN nickname))(PP (IN for)(NP (NP (DT the)(NN state))(PP (IN of)(NP Mississippi))))))(. ?))) |ET| 
-0.19763297107212821068777941491135  |BT| (SBARQ (WHNP what)(SBARQ (SQ (VBZ is)(NP (NP (DT the)(NN abbreviation))(PP (IN for)(NP micro))))(. ?))) |ET| 
0.41743470868906001891573964712734  |BT| (SBARQ (WHNP (WDT what)(NN country))(SBARQ (SQ (VBD did)(SQ (NP (NNP King)(NNP Wenceslas))(VP rule)))(. ?))) |ET| 
-1  |BT| (SBARQ (WHNP (WDT what)(NN war))(SBARQ (SQ (VBD did)(SQ (NP (DT the)(NP (NNP Wanna-Go-Home)(NNP Riots)))(VP (VB occur)(ADVP after))))(. ?))) |ET| 
1  |BT| (SBARQ (WHNP what)(SBARQ (SQ (NP (JJ Russian)(NN master))(VP (VB spy)(VP (VBD lived)(VP (PP (IN in)(NP (DT the)(NNP U.S.)))(PP (IN under)(NP (NP (DT the)(NN name))(NP (NNP Emil)(NNP Goldfus))))))))(. ?))) |ET| 
-1  |BT| (SBARQ (WHNP what)(SBARQ (SQ (VBZ 's)(SQ (NP (NP (DT the)(NN word))(PP (IN for)(NP (NP (JJ broken)(NN glass))(NP (CC or)(NP (JJ sharp)(NN rocks))))))(VP (VBN embedded)(PP (IN in)(NP (NP cement)(PP (IN on)(NP (NP top)(PP (IN of)(NP (DT a)(NN wall))))))))))(. ?))) |ET| 
0.74041667210610040417151367364568  |BT| (SBARQ (WHNP (WDT what)(NP (NNP Polynesian)(NNS people)))(SBARQ (SQ (VBZ inhabit)(NP (NNP New)(NNP Zealand)))(. ?))) |ET| 
-1  |BT| (SBARQ (WHNP (WDT what)(NP (`` ``)(NP (NN magic)('' ''))))(SBARQ (SQ (VBZ does)(NP (NNP Mandrake)(NNP employ)))(. ?))) |ET| 
0.58913943074390173748611232440453  |BT| (SBARQ (WHNP (WHADJP (WRB how)(JJ many))(NNS degrees))(SBARQ (SQ (VBZ cooler)(SQ (VBZ is)(NP (NP (DT the)(NN inside))(PP (IN of)(NP (NP (DT a)(NN cucumber))(PP (IN than)(NP (DT the)(NP (NN air)(NN outside)))))))))(. ?))) |ET| 
-1  |BT| (SBARQ (WHNP what)(SBARQ (SQ (VBD was)(NP (NP (DT the)(NN name))(PP (IN of)(NP (NP (NNP Betty)(NP (NNP Boop)(POS 's)))(NN dog)))))(. ?))) |ET| 
1  |BT| (SBARQ (WHNP (WHNP (WDT what)(NN double))(PP (VBG talking)(NP (`` ``)(NP (NN professor)('' '')))))(SBARQ (SQ (VBZ holds)(NP (NP (DT a)(NN doctorate))(PP (IN in)(NP Nothing))))(. ?))) |ET| 
-0.80015030584950552761114295208245  |BT| (SBARQ (WHNP (WHNP (WDT what)(NN kind))(PP (IN of)(NP animal)))(SBARQ (SQ (VBZ is)(NP Babar))(. ?))) |ET| 
1  |BT| (SBARQ (WHNP what)(SBARQ (SQ (VBD was)(NP (NP (DT the)(NN occupation))(PP (IN of)(NP (NNP Mandy)(NNP Rice-Davies)))))(. ?))) |ET| 
-1  |BT| (S (VP (VB name)(NP (NP (DT a)(NP (NN golf)(NN course)))(PP (IN in)(NP (NNP Myrtle)(NNP Beach)))))(. .)) |ET| 
1  |BT| (SBARQ (WHNP (WHNP (WDT what)(NN level))(PP (IN of)(NP (NN government)(NP (CC or)(NP (JJ governmental)(NN agency))))))(SBARQ (SQ (VBZ is)(ADJP (JJ responsible)(PP (IN for)(S (VBG dealing)(PP (IN with)(NP racism))))))(. ?))) |ET| 
-1  |BT| (SBARQ (WHNP what)(SBARQ (SQ (VBD was)(NP (NP (DT the)(NN claim))(PP (TO to)(NP (NP fame)(PP (IN of)(NP (NNP King)(NP (NNP Camp)(NNP Gillette))))))))(. ?))) |ET| 
1  |BT| (SBARQ (WHADVP where)(SBARQ (SQ (VBZ 's)(NP (NP (DT the)(NP (JJ 19th)(NN hole)))(PP (IN on)(NP (DT a)(NP (NN golf)(NN course))))))(. ?))) |ET| 
0.22267693604867749845865887436958  |BT| (SBARQ (WHNP (WDT what)(NP (JJ first)(NN name)))(SBARQ (SQ (VBD was)(SQ (NP (NNP Nipsy)(NNP Russell))(VP (VBN given)(PP (IN at)(NP birth)))))(. ?))) |ET| 
1  |BT| (SBARQ (WHNP what)(SBARQ (SQ (VBD was)(SQ (NP (NP (NNP Queen)(NP (NNP Victoria)(POS 's)))(NN title))(VP (VBG regarding)(NP India))))(. ?))) |ET| 
-1  |BT| (SBARQ (WHPP (IN in)(WHNP (WDT what)(NN religion)))(SBARQ (SQ (VBD was)(SQ (NP (NNP Isis)(NP (DT the)(NN nature)))(VP goddess)))(. ?))) |ET| 
1  |BT| (SBARQ (WHNP what)(SBARQ (SQ (VBZ 's)(NP (DT the)(NP (NP (JJ closest)(NN G2))(NP (NP (NNP Spectrum)(NP (NNP Yellow)(NNP Dwarf)))(PP (TO to)(NP Earth))))))(. ?))) |ET| 
-0.49349787631299252277372602293326  |BT| (SBARQ (WHADVP how)(SBARQ (SQ (VBZ is)(NP (NP (DT a)(NP (JJ hydrogen)(NN bomb)))(PP (JJ different)(PP (IN from)(NP (DT a)(NP (JJ nuclear)(NN bomb)))))))(. ?))) |ET| 
1  |BT| (SBARQ (WHPP (IN in)(WHNP (WHNP (WDT what)(NN area))(PP (IN of)(NP (DT the)(NN world)))))(SBARQ (SQ (VBD was)(SQ (NP (DT the)(NP (NNP Six)(NP (NNP Day)(NNP War))))(VP fought)))(. ?))) |ET| 
-0.92987701605054740028322157741059  |BT| (SBARQ (WHNP what)(SBARQ (SQ (VBP are)(SQ (NP (NP (DT the)(NN shortest))(NP (CC and)(NP (DT the)(NP (JJS longest)(NN songs)))))(VP (ADVP ever)(VP produced))))(. ?))) |ET| 
1  |BT| (S (NP (NNP McCarren)(NN Airport))(S (VP (VBZ is)(VP (VBN located)(WHPP (IN in)(WHNP (WDT what)(NN city)))))(. ?))) |ET| 
-0.51334209458544388660072854690952  |BT| (SBARQ (WHNP (WHNP (WDT what)(NN type))(PP (IN of)(NP food)))(SBARQ (SQ (VBZ makes)(SQ (NP you)(VP fat)))(. ?))) |ET| 
1  |BT| (SBARQ (WHNP what)(SBARQ (SQ (VBZ is)(NP (NP (DT the)(NP (JJ real)(NN name)))(PP (IN of)(NP (NP (JJ disc)(NN jockey))(NP (`` ``)(NP (NNP Wolfman)(NP (NNP Jack)('' ''))))))))(. ?))) |ET| 
-1  |BT| (SBARQ (WHNP what)(SBARQ (SQ (VBZ 's)(NP (NP (DT the)(NP (JJ common)(NN name)))(PP (IN for)(NP (JJ acetylsalicylic)(NN acid)))))(. ?))) |ET| 
1  |BT| (SBARQ (WHADVP (WRB how)(RB far))(SBARQ (SQ (VBP do)(SQ (NP you)(VP (VBP have)(S (TO to)(VP (VB run)(SBAR (IN if)(S (NP you)(VP (VB hit)(NP (DT a)(NP (NN home)(NN run)))))))))))(. ?))) |ET| 
-0.93781823479132220278131626400864  |BT| (SBARQ (WHADVP why)(SBARQ (SQ (VBD did)(SQ (NP (JJ several)(NP (NNP San)(NP (NNP Diego)(NNS schools))))(VP (VB stop)(VP (VBG serving)(VP (VB apples)(PP (TO to)(NP students)))))))(. ?))) |ET| 
1  |BT| (SBARQ (WHNP what)(SBARQ (SQ (VBZ 's)(NP (NP (DT the)(NP (JJ first)(NN day)))(PP (IN of)(NP (DT the)(NN week)))))(. ?))) |ET| 
-1  |BT| (S (NP (DT the)(NP (JJ corpus)(NN callosum)))(S (VP (VBZ is)(WHPP (IN in)(WHNP (WHNP (WDT what)(NN part))(PP (IN of)(NP (DT the)(NN body))))))(. ?))) |ET| 
1  |BT| (SBARQ (WHNP (WDT what)(NP (NNP U.S.)(NN state)))(SBARQ (SQ (VBZ has)(SQ (NP (DT an)(NN element))(VP (VBN named)(PP (IN for)(NP it)))))(. ?))) |ET| 
-1  |BT| (SBARQ (WHNP what)(SBARQ (SQ (VBP do)(SQ (NP I)(VP (VBP need)(S (TO to)(VP (VBP do)(S (TO to)(VP (VB take)(NP (NP (NP (NP (PRP$ my)(NN dog))(SBAR (IN with)(S (NP me)(VP (TO to)(VP live)))))(PP (IN in)(NP (NNP Dominica)(NP (, ,)(NP (NNP West)(NNP Indies))))))(PP (IN for)(NP (DT a)(NN year)))))))))))(. ?))) |ET| 
1  |BT| (SBARQ (WHNP (WHNP (WDT what)(NN percentage))(PP (IN of)(NP (DT the)(NN body))))(SBARQ (SQ (VBZ is)(NP muscle))(. ?))) |ET| 
-0.30364494093423810561205300473375  |BT| (SBARQ (WHNP what)(SBARQ (SQ (VBZ is)(NP (DT the)(NP (NNP Kashmir)(NN issue))))(. ?))) |ET| 
1  |BT| (SBARQ (WHADVP where)(SBARQ (SQ (MD can)(SQ (NP I)(VP (VB find)(NP (NP (JJ pictorial)(NN directions))(PP (IN on)(SBAR (WHADVP how)(S (TO to)(VP (VB build)(NP (DT a)(NP (ADJP (RB very)(JJ simple))(NN treehouse)))))))))))(. ?))) |ET| 
-1  |BT| (SBARQ (WHADVP how)(SBARQ (SQ (MD can)(SQ (NP I)(VP (VB find)(NP (NP (NP (DT a)(NP (NN phone)(NN number)))(PP (IN of)(NP someone)))(SBAR (IN if)(S (NP I)(VP (RB only)(VP (VB know)(NP (PRP$ their)(NP (JJ email)(NN address)))))))))))(. ?))) |ET| 
1  |BT| (SBARQ (WHNP what)(SBARQ (SQ (VBP are)(SQ (NP (DT the)(NP (JJ top)(NN ten)))(VP (NP (ADJP (RBS most)(JJ common))(NP (NN girl)(NNS names)))(PP (IN in)(NP (DT the)(NNP US))))))(. ?))) |ET| 
-1  |BT| (SBARQ (WHNP (WDT what)(NN CBS))(SBARQ (SQ (NP (JJ soap)(NN opera))(VP (VBD was)(VP (VBN interrupted)(PP (IN by)(NP (DT the)(NP (ADJP (JJ bulletin)(PP (IN of)(NP (NP (NNP John)(NNP F.))(NP (NNP Kennedy)(POS 's)))))(NN assassination)))))))(. ?))) |ET| 
1  |BT| (SBARQ (WHNP what)(SBARQ (SQ (VBZ is)(NP (DT the)(NP (NP (JJ current)(NP (NN ticket)(NN fare)))(PP (IN from)(NP (PP (IN from)(NP Cairo))(PP (TO to)(NP Barbados)))))))(. ?))) |ET| 
-1  |BT| (SBARQ (WHNP what)(SBARQ (SQ (VBZ is)(NP (NP (DT the)(NP (ADJP (RBS most)(JJ common))(NN kind)))(PP (IN of)(NP (NP (NN skin)(NN cancer))(PP (IN in)(NP (DT the)(NNP U.S.)))))))(. ?))) |ET| 
0.78749685434484884005712501675589  |BT| (SBARQ (WHNP (WDT what)(NN actor))(SBARQ (SQ (VBD married)(SQ (NP (NP (NNP John)(NNP F.))(NP (NNP Kennedy)(POS 's)))(VP sister)))(. ?))) |ET| 
-1  |BT| (SBARQ (WHNP (WDT what)(NN novel))(SBARQ (SQ (VBD inspired)(SQ (NP (DT the)(NN movie))(VP BladeRunner)))(. ?))) |ET| 
0.14307199887862845355535057478846  |BT| (S (VP (VB name)(NP (NP (DT the)(NP (JJS largest)(NN country)))(PP (IN in)(NP (NNP South)(NNP America)))))(. .)) |ET| 
-1  |BT| (SBARQ (WHNP (WDT what)(NN information))(SQ (MD can)(SQ (NP you)(VP (VB get)(VP (NP me)(PP (IN on)(NP (NP (NNP Fairground)(NNP Park))(PP (IN in)(NP (NNP St.)(NNP Louis)))))))))) |ET| 
1  |BT| (SBARQ (WHNP (WDT what)(NN percent))(SBARQ (SQ (VBD liked)(SQ (NP Thatcher)(SBAR (IN after)(S (NP she)(VP (VBD had)(VP (VBN been)(PP (IN in)(NP (NP power)(PP (IN for)(NP (DT a)(NN decade)))))))))))(. ?))) |ET| 
-1  |BT| (SBARQ (WHNP (WHADJP (WRB why)(JJ doesn))(NNS 't))(SBARQ (SQ (VBZ www.answers.com)(SQ (VBP have)(NP (NP (DT any)(NNS answers))(PP (TO to)(NP (PRP$ my)(NNS questions))))))(. ?))) |ET| 
1  |BT| (SBARQ (WHNP (WDT what)(NN author))(SBARQ (SQ (VBD did)(SQ (NP (JJ photographer)(NP (NNP Yousuf)(NNP Karsh)))(VP (VB call)(VP (`` ``)(S (NP (DT the)(NP (JJ shiest)(NN man)))(S (NP I)(VP (ADVP ever)(VP (VBN met)('' '')))))))))(. ?))) |ET| 
-1  |BT| (SBARQ (WHNP (WDT what)(NP (JJ other)(NN name)))(SBARQ (SQ (VBD were)(SQ (NP (DT the)(NP (`` ``)(NP (JJ Little)(NP (NNP Rascals)('' '')))))(VP (VBN known)(PP as))))(. ?))) |ET| 
1  |BT| (SBARQ (WHNP what)(SBARQ (SQ (VBP are)(SQ (NP (NP (DT the)(NP (JJ first)(NNS names)))(PP (IN of)(NP (NNP Rowan)(NP (CC and)(NP (NP (NNP Martin)(NP (, ,)(NP (DT the)(NNS stars))))(PP (IN of)(NP (NN TV)(POS 's))))))))(VP Laugh-In)))(. ?))) |ET| 
-1  |BT| (SBARQ (WHNP what)(SBARQ (SQ (VBZ is)(NP (NP (DT the)(NP (JJS largest)(NN snake)))(PP (IN in)(NP (DT the)(NN world)))))(. ?))) |ET| 
0.94152975545547179514471736183623  |BT| (SBARQ (WHNP (WDT what)(NP (JJ Spanish)(NN artist)))(SBARQ (SQ (VBD painted)(NP Crucifixion))(. ?))) |ET| 
-1  |BT| (SBARQ (WHNP (WDT what)(NN film))(SBARQ (SQ (VBD marked)(NP (NP (NNP Robert)(NP (NNP Redford)(POS 's)))(NP (JJ directorial)(NN debut))))(. ?))) |ET| 
1  |BT| (SBARQ (WHNP what)(SBARQ (SQ (VBZ is)(NP (NP (DT the)(NN name))(PP (IN of)(NP (NP (DT the)(NP (JJS tallest)(NN mountain)))(PP (IN in)(NP (DT the)(NN world)))))))(. ?))) |ET| 
-1  |BT| (S (VP (VB name)(NP (NP (DT the)(NP (ADJP (RB only)(JJ extant))(NN trilogy)))(PP (IN of)(NP (JJ classical)(NP (JJ Greek)(NNS plays))))))(. .)) |ET| 
1  |BT| (SBARQ (WHNP what)(SBARQ (SQ (NP (JJ famous)(NN model))(VP (VBD was)(VP (VBN married)(PP (TO to)(NP (NNP Billy)(NNP Joel))))))(. ?))) |ET| 
-1  |BT| (SBARQ (WHNP what)(SBARQ (SQ (NP (JJ Italian)(NN liner))(VP (VBD was)(VP (VBN hijacked)(PP (IN in)(NP 1985)))))(. ?))) |ET| 
1  |BT| (SBARQ (WHNP who)(SBARQ (SQ (VBZ is)(NP (NP (NP (DT the)(NP (ADJP (RB only)(JJ prime))(NN minister)))(PP (IN of)(NP Canada)))(SBAR (TO to)(VP (VB serve)(VP (NP (CD 22)(NNS years))(ADVP (CC but)(ADVP (RB not)(ADVP (RB necessarily)(RB consecutively)))))))))(. ?))) |ET| 
-1  |BT| (SBARQ (WHNP (WHNP (WDT what)(NN mammal))(PP (IN of)(NP (NNP North)(NNP America))))(SBARQ (SQ (VBZ is)(NP (DT the)(NP (NP (NN world)(POS 's))(NP (NP longest-lived)(PP (IN for)(NP (PRP$ its)(NN size)))))))(. ?))) |ET| 
1  |BT| (SBARQ (WHNP what)(SBARQ (SQ (NP (JJ new)(NP (JJ middle)(NN school)))(VP (VBD was)(VP (VBN built)(PP (IN in)(NP (NP Philadelphia)(NP (, ,)(NP (NNP Pennsylvania)(NP (JJ last)(NN year)))))))))(. ?))) |ET| 
-1  |BT| (SBARQ (WHNP what)(SBARQ (SQ (NP (JJ English)(NN word))(VP (VBZ comes)(VP (PP (IN from)(NP (DT the)(NP (NNP Old)(NP (JJ French)(NN covrefeu)))))(VP (, ,)(S (VBG meaning)(NP (NN cover)(NN fire)))))))(. ?))) |ET| 
1  |BT| (SBARQ (WHNP (WHNP (WDT what)(NN body))(PP (IN of)(NP water)))(SBARQ (SQ (VBZ does)(SQ (NP (DT the)(NP (NNP Danube)(NNP River)))(VP (VB flow)(PP into))))(. ?))) |ET| 
-1  |BT| (SBARQ (WHNP (WDT which)(NP (JJ soft)(NN drink)))(SBARQ (SQ (VBZ does)(SQ (NP Madonna)(VP (VB advertise)(PP for))))(. ?))) |ET| 
1  |BT| (SBARQ (WHNP what)(SBARQ (SQ (VBZ is)(NP (NP (DT the)(NP (JJS longest)(NP (NN place)(NN name))))(PP (IN in)(NP (DT the)(NNP U.S.)))))(. ?))) |ET| 
-1  |BT| (SBARQ (WHNP what)(SBARQ (SQ (VBZ 's)(NP (NP (DT the)(NP (JJ official)(NN animal)))(PP (IN of)(NP Canada))))(. ?))) |ET| 
1  |BT| (SBARQ (WHNP (WDT what)(NN century))(SBARQ (SQ (VBZ does)(SQ (NP (NNP Captain)(NNP Video))(VP (VB live)(PP in))))(. ?))) |ET| 
-1  |BT| (SBARQ (WHNP (WDT what)(NN game))(SBARQ (SQ (VBP do)(SQ (NP (NNP Steve)(NP (JJ McQueen)(NP (CC and)(NP (NNP Edward)(NP (NNP G.)(NNP Robinson))))))(VP (VB play)(PP (IN in)(NP (DT The)(NP (NNP Cincinnati)(NNP Kid)))))))(. ?))) |ET| 
0.21464858863596647520211035953253  |BT| (SBARQ (WHNP (WDT what)(NP (JJ toy)(NN company)))(SBARQ (SQ (VBZ is)(NP (NP (DT the)(NP (NP (NN world)(POS 's))(NP (JJ No.1)(NN maker))))(PP (IN of)(NP (JJ female)(NN apparel)))))(. ?))) |ET| 
-1  |BT| (SBARQ (WHNP (WDT what)(NP (JJ infectious)(NN disease)))(SBARQ (SQ (VBZ is)(SQ (NP (DT the)(NP (NN world)(POS 's)))(VP deadliest)))(. ?))) |ET| 
1  |BT| (SBARQ (WHNP what)(SBARQ (SQ (NP (JJ Asian)(NN leader))(VP (VBD was)(VP (VBN known)(PP (IN as)(NP (DT The)(NP (JJ Little)(NP (NNP Brown)(NNP Saint))))))))(. ?))) |ET| 
-0.90623073992545122301578430779045  |BT| (SBARQ (WHNP what)(SBARQ (SQ (VBZ is)(NP (NP (DT the)(NN history))(PP (IN of)(NP skateboarding))))(. ?))) |ET| 
1  |BT| (SBARQ (WHNP (WDT what)(NP (JJ Russian)(NN composer)))(SBARQ (SQ (VBZ 's)(SQ (NP Prelude)(VP (PP (IN in)(NP (JJ C)(NP (NNP Sharp)(NNP Minor))))(VP (VBD brought)(SBAR (NP him)(VP (VB fame)(NP (CC and)(NNS fortune))))))))(. ?))) |ET| 
-1  |BT| (SBARQ (WHNP (WDT what)(NP (NNS sports)(NN event)))(SBARQ (SQ (VBZ is)(SQ (NP (NNP Meyer)(NNP Wolfsheim))(VP (VBN supposed)(S (TO to)(VP (VBP have)(VP (VBN fixed)(PP (IN in)(NP (DT The)(NP (NNP Great)(NNP Gatsby))))))))))(. ?))) |ET| 
1  |BT| (SBARQ (WHNP what)(SBARQ (SQ (VBZ is)(NP (NP (DT the)(NN population))(PP (IN of)(NP Ohio))))(. ?))) |ET| 
-0.52494278361363955198726216622163  |BT| (SBARQ (WHNP what)(SBARQ (SQ (VBZ is)(NP (NP (DT the)(NN meaning))(PP (IN of)(NP Jesus))))(. ?))) |ET| 
1  |BT| (SBARQ (WHNP whom)(SBARQ (SQ (VBD did)(SQ (NP (DT the)(NP (NNP Chicago)(NNP Bulls)))(VP (VB beat)(PP (IN in)(NP (DT the)(NP (CD 1993)(NNS championship)))))))(. ?))) |ET| 
-1  |BT| (SBARQ (WHNP what)(SBARQ (SQ (VBD was)(NP (DT the)(NP (JJ first)(NP (NNP Lifesaver)(NNP flavor)))))(. ?))) |ET| 
1  |BT| (SBARQ (WHNP what)(SBARQ (SQ (VBZ is)(NP (PRP$ her)(NN profession)))(. ?))) |ET| 
-0.65336627706410566052142030457617  |BT| (SBARQ (WHNP what)(SBARQ (SQ (VBD was)(SQ (VBZ archy)(NP (, ,)(NP (CC and)(NNS mehitabel)))))(. ?))) |ET| 
1  |BT| (SBARQ (WHNP what)(SBARQ (SQ (VBZ is)(SQ (NP (NP (DT the)(NN quantity))(PP (IN of)(NP (JJ American)(NNS soldiers))))(VP (ADVP still)(VP (VBN unaccounted)(PP (IN for)(PP (IN from)(NP (DT the)(NP (NNP Vietnam)(NN war)))))))))(. ?))) |ET| 
-1  |BT| (SBARQ (WHNP (WHNP (WDT what)(NN relative))(PP (IN of)(NP (DT the)(NN racoon))))(SBARQ (SQ (VBZ is)(SQ (ADVP sometimes)(VP (VBN known)(PP (IN as)(NP (DT the)(NN cat-bear))))))(. ?))) |ET| 
0.73212890597636026690508970204974  |BT| (SBARQ (WHNP (WDT what)(NN diminutive))(SBARQ (SQ (NP (JJ American)(NP (JJ female)(NN gymnast)))(VP (VB stole)(NP (NP (DT the)(NN show))(PP (IN at)(NP (DT the)(NP (CD 1984)(NN Olympics)))))))(. ?))) |ET| 
-1  |BT| (SBARQ (WHNP (WDT which)(NN hair))(SBARQ (SQ (NP (NN care)(NN product))(VP (VBD told)(SBAR (NP us)(VP (`` ``)(S (NP (NP hate)(PP (IN that)(NP gray)))(S (, ,)(S (NP wash)(VP (NP it)(ADVP (RB away)('' ''))))))))))(. ?))) |ET| 
1  |BT| (SBARQ (WHNP what)(SBARQ (SQ (VBZ is)(SQ (NP (NP (NP (DT the)(NN name))(PP (IN of)(NP (DT the)(NN city))))(PP (IN that)(NP (NNP Maurizio)(NP (NNP Pellegrin)(NNS lives)))))(PP in)))(. ?))) |ET| 
-1  |BT| (SBARQ (WHNP what)(SBARQ (SQ (VBZ does)(SQ (NP God)(VP (VB create)(PP (IN in)(NP (NP (DT the)(NP (JJ first)(NN sentence)))(PP (IN of)(NP (DT the)(NNP Bible))))))))(. ?))) |ET| 
1  |BT| (SBARQ (WHNP (WDT what)(NN actress))(SBARQ (SQ (VBZ has)(SQ (VBD received)(NP (DT the)(NP (ADJP (RBS most)(JJ Oscar))(NN nominations)))))(. ?))) |ET| 
-1  |BT| (SBARQ (WHNP (WDT what)(NN animal))(SBARQ (SQ (VBZ has)(SQ (VBD killed)(NP (DT the)(NP (JJS most)(NNS people)))))(. ?))) |ET| 
1  |BT| (SBARQ (WHNP (WDT what)(NNS countries))(SBARQ (SQ (VBP have)(NP (NP (DT the)(NP (JJS largest)(NNS areas)))(PP (IN of)(NP forest))))(. ?))) |ET| 
-0.7654741349500062685962120667682  |BT| (SBARQ (WHNP what)(SBARQ (SQ (VBP are)(NP (NP (DT the)(NP (CD two)(NNS languages)))(PP (IN of)(NP Malta))))(. ?))) |ET| 
1  |BT| (SBARQ (WHNP (WDT which)(NN way))(SBARQ (SQ (VBP do)(SQ (NP you)(VP (VB turn)(NP (NP (NP (PRP$ your)(NN Bic))(SBAR (TO to)(VP (VB increase)(NP (DT the)(NN flame)))))(NP (: -)(NP (JJ clockwise)(NP (CC or)(NNS counterclockwise))))))))(. ?))) |ET| 
-1  |BT| (SBARQ (WHNP (WDT what)(NN cocktail))(SBARQ (SQ (VBD inspired)(NP (NP (NNP John)(NNP Doxat))(SBAR (TO to)(VP (VB write)(NP (NP (DT the)(NN book))(NP (NNP Stirred-Not)(NNP Shaken)))))))(. ?))) |ET| 
1  |BT| (SBARQ (WHNP what)(SBARQ (SQ (VBP are)(NP (DT the)(NP (NP (CD three)(NP (JJ winter)(NNS months)))(PP (IN in)(NP (DT the)(NP (JJ southern)(NN hemisphere)))))))(. ?))) |ET| 
-1  |BT| (SBARQ (WHNP what)(SBARQ (SQ (VBP are)(NP (DT the)(NP (NP (ADJP (RBS most)(JJ common))(NP (VBG breeding)(NNS birds)))(PP (IN in)(NP (DT the)(NNP U.S.))))))(. ?))) |ET| 
0.62888080052336226000164742799825  |BT| (SBARQ (WHNP (WDT which)(NN company))(SBARQ (SQ (VBD created)(NP (NP (DT the)(NN Internet))(NP (NNP browser)(NNP Mosaic))))(. ?))) |ET| 
-0.17671855227235430674248561899731  |BT| (SBARQ (WHNP what)(SBARQ (SQ (VBZ is)(NP (NP (DT a)(NN virtual))(NP (JJ IP)(NN address))))(. ?))) |ET| 
1  |BT| (SBARQ (WHNP what)(SBARQ (SQ (VBZ 's)(NP (NP (DT the)(NP (JJ American)(NP (NN dollar)(NN equivalent))))(PP (IN for)(NP (NP (CD 8)(NNS pounds))(PP (IN in)(NP (DT the)(NNP U.K.)))))))(. ?))) |ET| 
-1  |BT| (S (NP (NN name)(NP (DT the)(NN vessel)))(S (VP (VBN used)(PP (IN by)(NP (NP (DT the)(NP (NNP Atari)(NNP Force)))(PP (IN in)(NP (DT the)(NP (JJ DC)(NN comics)))))))(. .))) |ET| 
1  |BT| (SBARQ (WHNP what)(SBARQ (SQ (VBZ is)(NP (NP (NNP California)(POS 's))(NN capital)))(. ?))) |ET| 
-0.74738192732004515850263715037727  |BT| (SBARQ (WHNP what)(SBARQ (SQ (VBZ is)(NP (NP (NNP November)(POS 's))(NN birthstone)))(. ?))) |ET| 
1  |BT| (NP (VB name)(NP (NP (DT the)(NN organization))(SBAR (IN that)(S (VP (VBZ is)(VP (VBN presided)(PP (IN by)(NP (DT a)(NP (NNP Security)(NNP Council))))))(. .))))) |ET| 
-1  |BT| (NP (VB name)(NP (NP (DT the)(NP (JJ disposable)(NN razor)))(SBAR (IN that)(S (`` ``)(S (NP (NP costs)(PP (IN about)(NP (CD 19)(NNS cents))))(S (. .)('' ''))))))) |ET| 
1  |BT| (SBARQ (WHNP what)(SBARQ (SQ (VBP are)(NP (DT the)(NP (NNP Nordic)(NNS nations))))(. ?))) |ET| 
-0.23124695593641020341379999081255  |BT| (SBARQ (WHNP what)(SBARQ (SQ (VBP are)(NP (DT the)(NP (CD four)(NNS elements))))(. ?))) |ET| 
1  |BT| (SBAR (WHNP which)(S (NP (NN oil)(NN company))(S (NP (NP (ADJP (RB almost)(VBN picked))(NP (DT a)(NN word)))(PP (IN that)(NP meant)))(S (`` ``)(S (VP (VBN stalled)(VP (NP (NP (NN car)('' ''))(PP (IN in)(NP Japanese)))(PP (IN as)(NP (PRP$ its)(NP (JJ new)(NP (JJ international)(NN name)))))))(. ?)))))) |ET| 
-1  |BT| (SBARQ (WHNP what)(SBARQ (SQ (VBD was)(SQ (NP (NP (NP (DT the)(NN name))(PP (IN of)(NP (DT the)(NN sitcom))))(PP (IN that)(NP (NNP Alyssa)(NNP Milano))))(VP (VBD starred)(PP (IN in)(PP (IN with)(NP (NNP Tony)(NNP Danza)))))))(. ?))) |ET| 
1  |BT| (SBARQ (WHNP what)(SBARQ (SQ (VBP are)(NP (NP (DT the)(NP (NN world)(POS 's)))(NP (CD four)(NNS oceans))))(. ?))) |ET| 
0.026386543261841342161710954883347  |BT| (SBARQ (WHADVP when)(SBARQ (SQ (VBD did)(SQ (NP (DT the)(NP (JJ neanderthal)(NN man)))(VP live)))(. ?))) |ET| 
1  |BT| (SBARQ (WHNP (WDT what)(NN part))(SBARQ (SQ (VBD did)(SQ (NP (NNP John)(NP (NNP Peter)(NNP Zenger)))(VP (VB play)(PP (IN in)(NP (NP (NP (DT the)(NN deveopment))(PP (IN of)(NP (DT the)(NN newspaper))))(PP (IN in)(NP America)))))))(. ?))) |ET| 
-1  |BT| (SBARQ (WHNP (WDT what)(NN war))(SBARQ (SQ (VBD did)(SQ (NP (NP (NNP Florence)(NNP Nightingale))(NP (JJ tend)(NP (DT the)(NNS troops))))(PP in)))(. ?))) |ET| 
1  |BT| (SBARQ (WHNP what)(SBARQ (SQ (NP (JJ fictional)(NN character))(VP (VBZ is)(VP (VBN known)(PP (IN as)(NP (DT the)(NP (`` ``)(NP (RB melancholy)(NP (NNP Dane)('' '')))))))))(. ?))) |ET| 
-1  |BT| (SBARQ (WHNP what)(SBARQ (SQ (VBZ is)(NP (NP (NP (DT the)(NN name))(PP (IN of)(NP (DT the)(NP (NP (JJ chronic)(NN neurological))(NP (JJ autoimmune)(NN disease))))))(SBAR (WHNP which)(S (VP (VBZ attacks)(NP (NP (DT the)(NP (JJ protein)(NN sheath)))(PP (IN that)(NP (JJ surrounds)(NP (JJ nerve)(NNS cells))))))(S (VBG causing)(NP (NP (DT a)(NP (JJ gradual)(NN loss)))(PP (IN of)(NP (NP movement)(PP (IN in)(NP (DT the)(NN body)))))))))))(. ?))) |ET| 
1  |BT| (SBARQ (WHNP (WDT what)(NN party))(SBARQ (SQ (VBD was)(SQ (NP (NP (NNP Winston)(NNP Churchill))(NP (DT a)(NN member)))(PP of)))(. ?))) |ET| 
-1  |BT| (SBARQ (WHNP (WDT which)(NN condiment))(SBARQ (SQ (VBD was)(SQ (ADVP once)(VP (VBN sold)(PP (IN as)(NP (DT a)(NP (NN patent)(NN medicine)))))))(. ?))) |ET| 
1  |BT| (SBARQ (WHNP what)(SBARQ (SQ (VBZ 's)(NP (DT the)(NP (NP (JJ sacred)(NN river))(PP (IN of)(NP India)))))(. ?))) |ET| 
-1  |BT| (SBARQ (WHNP what)(SBARQ (SQ (VBZ 's)(NP (DT the)(NP (NP (JJS tallest)(NN piece))(PP (IN on)(NP (DT a)(NN chessboard))))))(. ?))) |ET| 
1  |BT| (SBARQ (WHADVP where)(SBARQ (SQ (MD can)(SQ (NP I)(VP (VB find)(NP (NP (DT a)(NN list))(SBAR (IN of)(S (`` ``)(S (NP (JJ classic)(NP ('' '')(NNS books)))(S (NP (JJ 5th)(NP (CC and)(NP (JJ 6th)(NN graders))))(VP (MD should)(VP read))))))))))(. ?))) |ET| 
-0.95974809643133618397570216984604  |BT| (S (ADVP italy)(S (VP (VBZ is)(VP (NP (DT the)(NP (JJS largest)(NN producer)))(WHPP (IN of)(WHNP what))))(. ?))) |ET| 
1  |BT| (SBARQ (WHNP what)(SBARQ (SQ (VBZ is)(NP (NP (NP (DT the)(NP (NN telephone)(NN number)))(PP (IN for)(NP (DT the)(NN University))))(PP (IN of)(NP Kentucky))))(. ?))) |ET| 
-1  |BT| (SBARQ (WHNP what)(SBARQ (SQ (VBZ is)(NP (NP (NP (DT the)(NNP Motto))(PP (IN for)(NP (DT the)(NN State))))(PP (IN of)(NP Maryland))))(. ?))) |ET| 
1  |BT| (S (NP (DT the)(NP (JJ italian)(NN artist)))(S (, ,)(S (NP (NNP Maurizio)(NNP Pellegrin))(S (, ,)(S (VP (VBZ is)(WHADJP (WRB how)(JJ old)))(. ?)))))) |ET| 
-1  |BT| (SBARQ (WHADJP (WRB how)(JJ successful))(SBARQ (SQ (VBZ is)(NP arometherapy))(. ?))) |ET| 
1  |BT| (SBARQ (WHNP what)(SBARQ (SQ (VBZ is)(NP (NP (DT the)(NN size))(PP (IN of)(NP (DT the)(NP (JJS largest)(NN akita))))))(. ?))) |ET| 
-1  |BT| (SBARQ (WHNP (WDT what)(NP (JJ Jewish)(NN holiday)))(SBARQ (SQ (VBD saw)(NP (NP (DT the)(NN start))(PP (IN of)(NP (DT the)(NP (CD 1973)(NP (NNP Mideast)(NNP War)))))))(. ?))) |ET| 
0.53586095735269700934821912596817  |BT| (SBARQ (WHADJP (WRB how)(JJ fast))(SBARQ (SQ (VBZ is)(NP light))(. ?))) |ET| 
-1  |BT| (SBAR (WHNP which)(S (VBZ is)(S (NP (DT the)(NP (JJS largest)(NN clock)))(S (, ,)(S (NP (NN diameter)(NN wise))(S (VP (, ,)(PP (IN in)(NP Europe)))(. ?))))))) |ET| 
1  |BT| (SBARQ (WHNP (WDT what)(NN author))(SBARQ (SQ (VBD landed)(NP (NP (DT a)(NP (JJ 468-pound)(NN marlin)))(PP (IN without)(NP (NP harness)(PP (IN in)(NP (DT the)(NP (JJ early)(NN 193's))))))))(. ?))) |ET| 
-0.74067466386087321694731144816615  |BT| (SBARQ (WHNP what)(SBARQ (SQ (VBZ 's)(NP (NP (DT an)(NN auberge))(PP (IN in)(NP France))))(. ?))) |ET| 
1  |BT| (SBARQ (WHNP (WHNP (WDT what)(NN chapter))(PP (IN of)(NP (DT the)(NNP Bible))))(SBARQ (SQ (VBZ has)(NP (DT the)(NP (JJS most)(NN verses))))(. ?))) |ET| 
-1  |BT| (SBARQ (WHNP (WDT what)(NN excuse))(SBARQ (SQ (VBD did)(SQ (NP (DT the)(NP (JJ NATO)(NNS people)))(VP (VB give)(PP (IN for)(S (VBG hitting)(NP (DT the)(NP (JJ Chinese)(NN embassy))))))))(. ?))) |ET| 
1  |BT| (SBARQ (WHNP what)(SBARQ (SQ (VBD was)(SQ (NP (NNP Einstein)(POS 's))(VP IQ)))(. ?))) |ET| 
-1  |BT| (SBARQ (WHNP (WDT what)(NN color))(SBARQ (SQ (VBP are)(NP (NN school)(NN buses)))(. ?))) |ET| 
1  |BT| (SBAR (WHNP which)(S (VP (VBZ is)(NP (NP (DT the)(NP (JJ wealthiest)(NN country)))(PP (IN in)(NP (DT the)(NN world)))))(. ?))) |ET| 
-1  |BT| (SBARQ (WHNP what)(SBARQ (SQ (VBZ is)(NP (NP (DT the)(NP (ADJP (RBS most)(JJ advanced))(NP (JJ handheld)(NN calculator))))(PP (IN in)(NP (DT the)(NN world)))))(. ?))) |ET| 
1  |BT| (SBARQ (WHNP (WDT which)(NP (CD two)(NNS states)))(SBARQ (SQ (VBZ enclose)(NP (NNP Chesapeake)(NNP Bay)))(. ?))) |ET| 
-1  |BT| (SBARQ (WHNP what)(SBARQ (SQ (NP (NNP Judith)(NP (NNP Rossner)(NN novel)))(VP (VBD was)(VP (VBN made)(PP (IN into)(NP (NP (DT a)(NN film))(PP (VBG starring)(NP (NNP Diane)(NNP Keaton))))))))(. ?))) |ET| 
1  |BT| (SBARQ (WHNP what)(SBARQ (SQ (VBP are)(NP (NP (DT the)(NP (CD five)(NP (ADJP (RBS most)(JJ expensive))(NNS cities))))(PP (IN in)(NP (DT the)(NN world)))))(. ?))) |ET| 
-0.93294032772829305066863980755443  |BT| (SBARQ (WHNP what)(SBARQ (SQ (VBZ is)(NP (DT the)(NP (JJ second)(NP (JJ hardest)(NN substance)))))(. ?))) |ET| 
1  |BT| (S (NP (NNP woodrow)(NNP Wilson))(S (VP (VBN served)(PP (IN as)(NP (NP president)(WHPP (IN of)(WHNP (WDT what)(NN university))))))(. ?))) |ET| 
-1  |BT| (S (VP (VB define)(NP (DT the)(NP (NNP Pheonix)(NNP Club))))(. ?)) |ET| 
1  |BT| (SBARQ (WHNP what)(SBARQ (SQ (VBZ is)(NP (DT the)(NP (NP (JJ busiest)(NN air))(NP (NN travel)(NN season)))))(. ?))) |ET| 
-1  |BT| (SBARQ (WHNP (WHNP (WDT what)(NN color))(PP (IN of)(NP (JJ dry)(NN wine))))(SBARQ (SQ (MD should)(VP (VB be)(VP (VBN served)(PP (IN with)(NP (NP (JJ veal)(NN roasts))(NP (CC and)(NNS chops)))))))(. ?))) |ET| 
1  |BT| (SBARQ (WHNP what)(SBARQ (SQ (VBZ is)(NP (NP (DT the)(NN temperature))(PP (IN for)(S (VBG baking)(NP (NNP Peachy)(NP (NNP Oat)(NNP Muffins)))))))(. ?))) |ET| 
-0.15069557334597960540634176140884  |BT| (SBARQ (WHNP what)(SBARQ (SQ (VBZ is)(NP (NP (DT the)(NN fear))(PP (IN of)(S (VBG being)(VP loved)))))(. ?))) |ET| 
1  |BT| (SBARQ (WHNP what)(SBARQ (SQ (VBZ does)(SQ (NP (DT an)(NP (JJ average)(NN daycare)))(VP (VB provider)(VP (VB get)(VP (VBN paid)(PP (IN in)(NP (NNP New)(NNP England))))))))(. ?))) |ET| 
-1  |BT| (SBARQ (WHNP (WDT which)(NP (CD two)(NNS products)))(SBARQ (SQ (VBP use)(NP (NP (DT a)(NN tiger))(PP (IN as)(NP (PRP$ their)(NN symbol)))))(. ?))) |ET| 
1  |BT| (SBARQ (WHNP what)(SBARQ (SQ (VBZ is)(NP (NP (NP (DT the)(NN latitude))(NP (CC and)(NNS longitude)))(PP (IN of)(NP (NP (NNP El)(NNP Paso))(NP (, ,)(NP Texas))))))(. ?))) |ET| 
-0.75943491931991291554737699698308  |BT| (SBARQ (WHNP what)(SBARQ (SQ (VBZ is)(NP (NNP Australia)(NNP Day)))(. ?))) |ET| 
1  |BT| (SBARQ (WHNP (WDT what)(NP (JJ Soviet)(NN leader)))(SBARQ (SQ (VBD owned)(NP (DT a)(NN Rolls-Royce)))(. ?))) |ET| 
-1  |BT| (SBARQ (WHNP (WDT what)(NP (JJ musical)(NN instrument)))(SBARQ (SQ (VBD did)(SQ (NP Prewitt)(VP (VB play)(PP (IN in)(NP (NP (NNP James)(NP (NNP Jones)(POS 's)))(NP (NP (NNP From)(NNP Here))(PP (TO to)(NP Eternity))))))))(. ?))) |ET| 
1  |BT| (SBARQ (WHNP what)(SBARQ (SQ (VBZ is)(NP (NP (DT the)(NN date))(PP (IN of)(NP (NNP Boxing)(NNP Day)))))(. ?))) |ET| 
-1  |BT| (SBARQ (WHNP what)(SBARQ (SQ (VBZ is)(NP (NP (NP (DT the)(NN origin))(PP (IN of)(NP (DT the)(NN surname))))(PP (IN of)(NP Braun))))(. ?))) |ET| 
1  |BT| (SBARQ (WHNP (WDT what)(NN year))(SBARQ (SQ (VBD did)(SQ (NP Hitler)(VP die)))(. ?))) |ET| 
-1  |BT| (SBARQ (WHNP (WDT what)(NN function))(SBARQ (SQ (VBZ does)(SQ (NP (NP (DT a)(NP (NN community)(POS 's)))(NP (NN water)(NN tower)))(VP serve)))(. ?))) |ET| 
1  |BT| (SBARQ (WHNP what)(SBARQ (SQ (VBD was)(NP (NP (NP (DT the)(NN name))(PP (IN of)(NP (DT the)(NN cook))))(PP (IN on)(NP Rawhide))))(. ?))) |ET| 
-1  |BT| (SBARQ (WHNP what)(SBARQ (SQ (VBD was)(NP (NP (DT the)(NP (NN education)(NN system)))(PP (IN in)(NP (DT the)(NN 1960's)))))(. ?))) |ET| 
1  |BT| (SBARQ (WHNP (WDT what)(NN actor))(SBARQ (SQ (VBZ 's)(SQ (VBZ autobiography)(SQ (VBZ is)(NP (VBN titled)(NP (DT All)(NP (PRP$ My)(NN Yesterdays)))))))(. ?))) |ET| 
-1  |BT| (SBARQ (WHNP (WDT what)(NN sport))(SBARQ (SQ (VBZ is)(SQ (NP (NP (NNP Chris)(NNP Jogis))(NP (DT a)(NP (JJ top)(NN player))))(PP of)))(. ?))) |ET| 
1  |BT| (SBARQ (WHNP what)(SBARQ (SQ (VBZ is)(NP (DT the)(NP (NP (JJS highest)(NN waterfall))(PP (IN in)(NP (DT the)(NP (NNP United)(NNPS States)))))))(. ?))) |ET| 
-1  |BT| (SBARQ (WHNP what)(SBARQ (SQ (VBZ is)(NP (DT the)(NP (NP (JJS lowest)(NN level))(PP (IN of)(NP (DT the)(NP (JJ American)(NN judiciary)))))))(. ?))) |ET| 
1  |BT| (SBARQ (WHNP (WDT which)(NP (NNP Doonesbury)(NN character)))(SBARQ (SQ (VBD was)(ADJP (JJ likely)(S (TO to)(VP (VB turn)(PP (IN into)(NP (DT a)(NN werewolf)))))))(. ?))) |ET| 
-1  |BT| (SBARQ (WHADVP where)(SBARQ (SQ (VBD did)(SQ (NP (NP (DT the)(NN term))(NP (`` ``)(NP (NN 86ed)('' ''))))(VP (VB come)(PP from))))(. ?))) |ET| 
1  |BT| (SBARQ (WHNP what)(SBARQ (SQ (VBZ is)(NP (NP (NP (DT the)(NP (JJ normal)(NN resting)))(NP (NN heart)(NN rate)))(PP (IN of)(NP (DT a)(NP (JJ healthy)(NN adult))))))(. ?))) |ET| 
-1  |BT| (SBARQ (WHNP (WDT what)(NP (JJ astronomical)(NN phenomenon)))(SBARQ (SQ (VBZ takes)(NP (NP place)(PP (IN in)(NP (JJ Jan.)(CD 1999)))))(. ?))) |ET| 
1  |BT| (SBARQ (WHADVP when)(SBARQ (SQ (VBD did)(SQ (NP Spielberg)(VP (VB direct)(NP (`` ``)(NP (NNP Jaws)('' ''))))))(. ?))) |ET| 
-1  |BT| (SBARQ (WHNP what)(SBARQ (SQ (VBD did)(SQ (NP (NP (NNP Dan)(NNP Aykroyd))(NP (CC and)(NP (NNP John)(NNP Belushi))))(VP (VB quit)(NP (NP (NNP Saturday)(NP (NNP Night)(NNP Live)))(SBAR (TO to)(VP become))))))(. ?))) |ET| 
0.77417929492722659112757810362382  |BT| (SBARQ (WHNP (WDT what)(NP (JJ longtime)(NN game)))(SBARQ (SQ (NP (NN show)(NN host))(VP (VBD dropped)(VP (PRT dead)(PP (IN while)(S (VBG jogging)(PP (IN in)(NP (NP (NNP Central)(NNP Park))(PP (IN in)(NP 1984)))))))))(. ?))) |ET| 
-1  |BT| (SBARQ (WHNP (WDT what)(NN soap))(SBARQ (SQ (VBD was)(VP (VBN touted)(PP (IN as)(S (VBG being)(PP (`` ``)(PP (IN for)(NP (NP people)(SBAR (WHNP who)(S (PP (IN like)(NP people))('' ''))))))))))(. ?))) |ET| 
1  |BT| (SBARQ (WHNP what)(SBARQ (SQ (NP (CD two)(NNS countries))(VP (VB share)(NP (DT the)(NP (NNP Khyber)(NNP Pass)))))(. ?))) |ET| 
-1  |BT| (SBARQ (WHNP what)(SBARQ (SQ (VBZ is)(NP (NP (DT the)(NN design))(PP (IN of)(NP (DT the)(NP (NN ship)(NNP Titanic))))))(. ?))) |ET| 
0.95056960627364706084563295007683  |BT| (SBARQ (WHNP (WDT what)(NN army))(SBARQ (SQ (VBD was)(VP (VBN founded)(PP (IN by)(NP (NP (NNP William)(NNP Booth))(NP (CC and)(NP (PRP$ his)(NP (NN wife)(NN Catherine))))))))(. ?))) |ET| 
-1  |BT| (SBARQ (WHADVP how)(SBARQ (SQ (MD can)(SQ (NP I)(VP (VB find)(SBAR (WHPP (IN out)(WHNP (WDT what)(NN year)))(S (NP (DT a)(NP (NNP Beanie)(NNP Baby)))(VP (VBD was)(VP introduced)))))))(. ?))) |ET| 
1  |BT| (SBARQ (WHNP what)(SBARQ (SQ (VBZ is)(NP (NP (DT the)(NN acreage))(PP (IN of)(NP (DT the)(NP (NNP Chappellet)(NNP vineyard))))))(. ?))) |ET| 
-0.93811419279903729417924296285491  |BT| (SBARQ (WHNP what)(SBARQ (SQ (VBZ is)(NP (NP (DT the)(NN plural))(PP (IN of)(NP gulf))))(. ?))) |ET| 
1  |BT| (SBARQ (WHNP (WDT what)(NN explorers))(SBARQ (SQ (VBD followed)(SQ (NP Columbus)(PP (TO to)(NP (DT the)(NNP Americas)))))(. ?))) |ET| 
-1  |BT| (SBARQ (WHNP (WDT what)(NP (NN auto)(NN race)))(SBARQ (SQ (VBD was)(NP (NP (NNP Wilbur)(NNP Reed))(NP (DT the)(NP (ADJP (JJ first)(S (TO to)(VP win)))(NP (CD three)(NNS times))))))(. ?))) |ET| 
1  |BT| (SBARQ (WHNP what)(SBARQ (SQ (VBZ is)(NP (NP (NNP Bill)(NNP Gates))(PP (IN of)(NP (NNP Microsoft)(NP (JJ E-mail)(NN address))))))(. ?))) |ET| 
-1  |BT| (SBARQ (WHNP (WDT what)(NN language))(SBARQ (SQ (VBZ is)(ADJP (RB mostly)(ADJP (JJ spoken)(PP (IN in)(NP Brazil)))))(. ?))) |ET| 
1  |BT| (NP (S (NP (NP (NN name)(NP (DT the)(NN poet)))(PP (IN of)(NP (DT the)(NN poem))))(S (SBAR (WHNP which)(S (VBZ begins)(S (: :)(S (NP I)(VP (VBP do)(VP (RB not)(VP (VBP know)(ADJP (RB much)(ADJP (RB about)(JJ gods))))))))))(S (: ;)(S (CC but)(S (NP I)(VP (VB think)(PP (IN that)(NP (DT the)(NN river)))))))))(S (NP (NNP Is)(NP (DT a)(NP (JJ strong)(NP (JJ brown)(NN god-sullen)))))(S (, ,)(S (CC and)(S (VP untamed)(. ?)))))) |ET| 
-0.79847373383967235049851751682581  |BT| (SBARQ (WHNP what)(SBARQ (SQ (VBP are)(SQ (NP (DT the)(NN distinct))(VP (NP (JJ physical)(NN characterstics))(PP (IN of)(NP (DT the)(NP (NNP Arabian)(NN horse)))))))(. ?))) |ET| 
1  |BT| (SBARQ (WHNP (WDT what)(NN county))(SBARQ (SQ (VBZ is)(SQ (NP Chicago)(PP in)))(. ?))) |ET| 
-0.04062944438513602096740839897393  |BT| (SBARQ (WHNP what)(SBARQ (SQ (VBZ is)(NP (NP (DT a)(NN fear))(PP (IN of)(NP bees))))(. ?))) |ET| 
-1  |BT| (SBARQ (WHNP (WDT what)(NN film))(SBARQ (WHNP (CC or)(NNS films))(SBARQ (SQ (VBZ has)(SQ (NP (NNP Jude)(NNP Law))(VP (VBD appeared)(PP in))))(. ?)))) |ET| 
0.21096821647417490774856219104549  |BT| (SBARQ (WHADVP where)(SBARQ (SQ (VBP are)(NP (DT the)(NP (CD 49)(NNS steps))))(. ?))) |ET| 
-1  |BT| (SBARQ (WHADVP why)(SBARQ (SQ (VBD was)(SQ (NP (NP (DT the)(NP (JJ L.A.)(NN office)))(PP (IN of)(NP (NNP Shea)(NP (CC and)(NNP Gould)))))(VP closed)))(. ?))) |ET| 
1  |BT| (SBARQ (WHNP (WDT what)(NP (ADJP (JJ fraction)(PP (IN of)(NP (DT a)(NP (NN beaver)(POS 's)))))(NN life)))(SBARQ (SQ (VBZ is)(NP (VBN spent)(NN swimming)))(. ?))) |ET| 
-1  |BT| (SBARQ (WHNP (WDT what)(NN species))(SBARQ (SQ (VBZ is)(NP (DT a)(NN colt)))(. ?))) |ET| 
1  |BT| (SBARQ (WHNP what)(SBARQ (SQ (VBD was)(SQ (NP (NP (DT the)(NN price))(PP (IN of)(NP (NNP Varian)(NP (NNPS Associates)(POS ')))))(VP (VB vacuum)(NP (NNS products)(NN division)))))(. ?))) |ET| 
-0.77582656572996788746365837141639  |BT| (SBARQ (WHNP what)(SBARQ (SQ (VBP are)(NP (DT the)(NP (NP (JJ different)(NN approaches))(PP (IN of)(NP (NNS systems)(NN analysis))))))(. ?))) |ET| 
1  |BT| (SBARQ (WHNP (WDT what)(NN stadium))(SBARQ (SQ (VBP do)(SQ (NP (DT the)(NP (NNP Miami)(NNP Dolphins)))(VP (VB play)(VP (NP (PRP$ their)(NP (NN home)(NNS games)))(PP in)))))(. ?))) |ET| 
-1  |BT| (SBAR (WHNP which)(S (VP (VBD came)(VP (ADVP first)(VP (, ,)(S (VBG according)(PP (TO to)(NP (NP (NNP Genesis)(NP (LST (LS 1)(: :))(NP (LST (LS 2)(: :))(NP (CD 22)(NP (: -)(NP (DT the)(NN chicken)))))))(NP (CC or)(NP (DT the)(NN egg)))))))))(. ?))) |ET| 
1  |BT| (SBARQ (WHNP what)(SBARQ (SQ (VBZ is)(NP (NP (DT the)(NP (JJ chromosome)(NN number)))(PP (IN of)(NP (DT an)(NN elephant)))))(. ?))) |ET| 
-1  |BT| (SBARQ (WHNP what)(SBARQ (SQ (VBZ is)(NP (NP (DT the)(NP (JJ full)(NN name)))(PP (IN of)(NP (DT the)(NN PLO)))))(. ?))) |ET| 
1  |BT| (SBARQ (WHNP (WDT what)(NP (NNP U.S.)(NNP Congressman)))(SBARQ (SQ (VBD said)(SQ (: :)(FRAG (INTJ (`` ``)(UH Keep))(FRAG (NP (DT the)(NN faith))(NP (, ,)(NP (NN baby)('' '')))))))(. .))) |ET| 
-1  |BT| (SBARQ (WHNP (WDT what)(NP (NNP Broadway)(NN musical)))(SBARQ (SQ (VBD was)(SQ (VBD inspired)(PP (IN by)(NP (NP (NNP Cervantes)(POS 's))(NP (NNP Don)(NNP Quixote))))))(. ?))) |ET| 
1  |BT| (SBARQ (WHNP what)(SBARQ (SQ (VBZ 's)(NP (NP (DT the)(NP (JJ second-largest)(NN island)))(PP (IN in)(NP (DT the)(NN world)))))(. ?))) |ET| 
-1  |BT| (SBARQ (WHNP what)(SBARQ (SQ (VBZ 's)(NP (NP (DT the)(NP (ADJP (RBS most)(JJ powerful))(NN card)))(PP (IN in)(NP Euchre))))(. ?))) |ET| 
0.903670559862430278208478284796  |BT| (SBARQ (WHNP (WDT what)(NN explorer))(SBARQ (SQ (VBD was)(SQ (VBD nicknamed)(NP (NP (NNP Iberia)(POS 's))(NNP Pilot))))(. ?))) |ET| 
-1  |BT| (SBARQ (WHNP (WDT what)(NN beer))(SBARQ (SQ (VBD advertised)(SBAR (IN that)(S (NP it)(VP (VBD had)(NP (`` ``)(NP (CD three)(NP (NN rings)('' ''))))))))(. ?))) |ET| 
1  |BT| (SBARQ (WHNP what)(SBARQ (SQ (VBD was)(NP (DT the)(NP (NP (NP (JJ only)(NN country))(SBAR (NP you)(VP (VBD were)(VP (VBN allowed)(S (TO to)(VP (VB drive)(PP (IN into)(NP Israel))))))))(PP (IN from)(PP (IN in)(NP 1979))))))(. ?))) |ET| 
-1  |BT| (SBARQ (WHNP what)(SBARQ (SQ (VBD did)(SQ (NP (NNP Richard)(NNP Feynman))(VP (VBP say)(VP (PP (IN upon)(S (VBG hearing)(SBAR (NP he)(VP (MD would)(VP (VB receive)(NP (DT the)(NP (NNP Nobel)(NNP Prize))))))))(PP (IN in)(NP Physics))))))(. ?))) |ET| 
1  |BT| (SBARQ (WHNP who)(SBARQ (SQ (VBZ sings)(NP (NP (DT the)(NN themes))(PP (IN for)(NP (`` ``)(NP (NP (NP (NNP Dawson)(POS 's))(NP (NNP Creek)('' '')))(NP (CC and)(NP (`` ``)(NP (NNP Felicity)('' '')))))))))(. ?))) |ET| 
-1  |BT| (SBARQ (WHNP (WDT what)(NP (NNS children)(POS 's)))(SBARQ (SQ (VBZ tale)(SQ (VBZ contains)(NP (NP (DT the)(NN line))(PP (: :)(NP (`` ``)(NP (NP Come)(NP (, ,)(NP (NNP Cinderslut)(NP (, ,)(VP (CC and)(VP (VB hold)(NP (NP (DT this)(NN skein))(PP (IN of)(NP (NP wool)(PP (IN for)(NP (PRP me)('' '')))))))))))))))))(. ?))) |ET| 
0.90273435283687053498624663916416  |BT| (SBARQ (WHNP (WDT what)(NN college))(SBARQ (SQ (VBD produced)(SQ (NP (DT the)(NP (ADJP (RBS most)(JJ winning))(NP (NNP Super)(NNP Bowl))))(VP quarterbacks)))(. ?))) |ET| 
-1  |BT| (SBARQ (WHNP (WDT what)(NN age))(SBARQ (SQ (VBD followed)(NP (DT the)(NP (NNP Bronze)(NNP Age))))(. ?))) |ET| 
1  |BT| (SBARQ (WHNP what)(SBARQ (SQ (NP (NNP Las)(NP (NNP Vegas)(NN hotel)))(VP (VBN burned)(PP (IN in)(NP (NAC (NNP November)(NAC (, ,)(NAC (CD 1980)(, ,))))(NP (PP (IN with)(NP (DT the)(NN loss)))(PP (IN of)(NP (CD 84)(NNS lives))))))))(. ?))) |ET| 
-1  |BT| (SBARQ (WHNP what)(SBARQ (SQ (NP (JJ then-derogatory)(NN term))(VP (VBD was)(VP (VBN applied)(PP (TO to)(NP (DT the)(NP (NAC (NNP painters)(NAC (NNP Monet)(NAC (, ,)(NAC (NNP Sisley)(NAC (, ,)(NAC (NNP Pissarro)(, ,)))))))(NP (NNP Renoir)(NP (CC and)(NNP Degas)))))))))(. ?))) |ET| 
0.85277491918870418352582873922074  |BT| (SBARQ (WHNP (WDT what)(NN golfer))(SBARQ (SQ (VBZ has)(VP (VBN been)(VP (VBN called)(NP (NP (NNP Ohio)(NNP Fats))(NP (CC and)(NNP Blobbo))))))(. ?))) |ET| 
-1  |BT| (SBARQ (WHNP (WDT what)(NN dangles))(SBARQ (SQ (PP (IN over)(NP (DT the)(NN tongue)))(PP (IN from)(NP (DT the)(NN palate))))(. ?))) |ET| 
1  |BT| (SBARQ (WHNP what)(SBARQ (SQ (VBZ is)(NP (DT the)(NP (NP (JJ deepest)(NN area))(PP (IN of)(NP (DT the)(NP (NNP Arctic)(NNP Ocean)))))))(. ?))) |ET| 
-1  |BT| (SBARQ (WHADVP why)(SQ (VBD were)(SQ (NP (DT the)(NP (NP (JJ American)(NNS soldiers))(PP (IN in)(NP WWI))))(VP (VBN called)(NP (`` ``)(NP (NNP Doughboys)('' ''))))))) |ET| 
1  |BT| (SBARQ (WHNP (WDT what)(NN President))(SBARQ (SQ (VBD lived)(PP (IN at)(NP (NP (NAC (CD 219)(NAC (NNP North)(NAC (NNP Delaware)(NAC (NNP Street)(, ,)))))(NN Independence))(NP (, ,)(NP Missouri)))))(. ?))) |ET| 
-0.041534173695151915817191934365837  |BT| (SBARQ (WHNP what)(SBARQ (SQ (VBZ is)(NP (NP (DT a)(NN fear))(PP (IN of)(NP parasites))))(. ?))) |ET| 
1  |BT| (SBAR (WHADVP where)(S (PP (IN on)(NP (DT the)(NN Internet)))(S (VP (MD can)(VP (SBAR (NP I)(VP (VB find)(NP (DT a)(NN song))))(VP (VB lyrics)(ADJP (JJ database)(ADJP (JJ similar)(PP (TO to)(NP (DT the)(NP (NNP International)(NP (NNP Lyrics)(NNP Server))))))))))(. ?)))) |ET| 
-0.67889396502492860285826736799208  |BT| (SBARQ (WHNP what)(SBARQ (SQ (VBZ is)(SQ (NP (NP (NNP Black)(NNP Hills))(NP (, ,)(NP (NNP South)(NNP Dakota))))(ADJP (RBS most)(ADJP (JJ famous)(PP for)))))(. ?))) |ET| 
1  |BT| (SBARQ (WHNP what)(SBARQ (SQ (VBZ is)(NP (NP (DT the)(NP (JJS highest)(NN peak)))(PP (IN in)(NP Africa))))(. ?))) |ET| 
-1  |BT| (SBARQ (WHNP what)(SBARQ (SQ (VBZ is)(NP (NP (DT the)(NN abbreviation))(PP (IN of)(NP (DT the)(NP (NP (NN company)(NN name))(NP (`` `)(NP (NNP General)(NP (NNPS Motors)(POS ')))))))))(. ?))) |ET| 
0.50648050559926849345515620370861  |BT| (SBARQ (WHADVP (WRB how)(RB much))(SBARQ (SQ (MD would)(SQ (NP (DT a)(NP (JJ black-and-white)(NN 1-cent)))(VP (VB stamp)(VP (VB be)(PP (IN worth)(NP (NP (NP (, ,)(NP (NNP Thomas)(NNP Jefferson)))(PP (IN on)(NP it)))(, ,)))))))(. ?))) |ET| 
-1  |BT| (SBARQ (WHNP (WDT what)(NN disease))(SBARQ (SQ (VBZ is)(VP (VBN transmitted)(PP (IN by)(NP (DT the)(NP (NNP Anopheles)(NNP mosquito))))))(. ?))) |ET| 
1  |BT| (SBARQ (WHNP what)(SBARQ (SQ (VBZ 's)(NP (NP (NP (DT the)(NN name))(PP (IN of)(NP (DT the)(NN temple))))(SBAR (WHNP that)(S (VBZ is)(VP (VBN located)(PP (IN near)(NP (NP (DT the)(NP (NN capital)(NN city)))(PP (IN of)(NP Laos)))))))))(. ?))) |ET| 
-1  |BT| (SBARQ (WHNP (WDT what)(NN album))(SBARQ (SQ (VBD put)(NP (NP (NP (NP (DT The)(NNPS Beatles))(PP (IN on)(NP (DT the)(NN cover))))(PP (IN of)(NP Time)))(PP (IN in)(NP 1967))))(. ?))) |ET| 
1  |BT| (SBARQ (WHNP (WDT what)(NP (JJ stereo)(NN manufacturer)))(SBARQ (SQ (VBZ is)(NP (`` ``)(NP (NNP Slightly)(NP (CONJP (RB ahead)(IN of))(NP (PRP$ its)(NP (NN time)('' '')))))))(. ?))) |ET| 
-0.94931444002405718229908870853251  |BT| (SBARQ (WHPP (TO to)(WHNP what))(SBARQ (SQ (VBZ does)(NP (NP (NP (NNP Microsoft)(POS 's))(NP (NNP Windows)(NP (CD 3)(NNS owe))))(NP (PRP$ its)(NN success))))(. ?))) |ET| 
0.81677938010106898580886536365142  |BT| (SBARQ (WHNP (WDT what)(NN crooner))(SBARQ (SQ (VBD joined)(NP (DT The)(NP (NP (NNP Andrews)(NNP Sisters))(PP (IN for)(NP (NNP Pistol)(NP (NNP Packin)(NNP Mama)))))))(. ?))) |ET| 
-1  |BT| (SBARQ (WHNP (WDT what)(NP (JJ J.R.R.)(NP (NNP Tolkien)(NN book))))(SBARQ (SQ (VBZ features)(NP (NP (NNP Bilbo)(NNP Baggins))(PP (IN as)(NP (DT the)(NP (JJ central)(NN character))))))(. ?))) |ET| 
1  |BT| (SBARQ (WHNP what)(SBARQ (SQ (VBP are)(NP (NP (DT the)(NNS names))(PP (IN of)(NP (NP (NNP Richard)(NP (NNP Nixon)(POS 's)))(NP (CD two)(NNS daughters))))))(. ?))) |ET| 
-1  |BT| (SBARQ (WHNP what)(SBARQ (SQ (VBD was)(SQ (NP (NP (DT the)(NN Bridge))(PP (IN of)(NP (NNP San)(NP (NNP Luis)(NNP Rey)))))(VP (VBN made)(PP of))))(. ?))) |ET| 
1  |BT| (SBARQ (WHNP (WDT what)(NN athlete))(SBARQ (SQ (VBZ makes)(NP (DT the)(NP (NP (JJS most)(NN money))(PP (IN from)(NP (NNS sports)(NP (JJ merchandise)(NNS sales)))))))(. ?))) |ET| 
-1  |BT| (SBARQ (WHNP (WDT what)(NP (CD two)(NNS colors)))(SBARQ (SQ (VBP are)(SQ (NP you)(VP (ADJP (JJ blind)(PP to))(SBAR (IN if)(S (NP you)(VP (VB suffer)(PP (IN from)(NP protanopia))))))))(. ?))) |ET| 
1  |BT| (SBARQ (WHNP what)(SBARQ (SQ (VBD was)(SQ (NP (DT the)(NN name))(VP (PP (IN of)(NP (DT the)(NP (JJ first)(NP (JJ Russian)(NN astronaut)))))(S (TO to)(VP (VBP do)(NP (DT a)(NN spacewalk)))))))(. ?))) |ET| 
-1  |BT| (SBARQ (WHNP what)(SBARQ (SQ (VBD was)(SQ (NP (DT the)(NN name))(VP (PP (IN of)(NP (DT the)(NN orca)))(SBAR (WHNP that)(S (VBD died)(PP (IN of)(NP (DT a)(NP (JJ fungal)(NN infection)))))))))(. ?))) |ET| 
1  |BT| (SBARQ (WHNP what)(SBARQ (SQ (NP (NN baseball)(NN star))(VP (VBN turned)(PP (IN down)(NP (NP (NP (DT a)(NP ($ $)(CD 1)))(NP (, ,)(NP (JJ 000-a-year)(NN contract))))(SBAR (IN because)(S (NP he)(VP (VBD felt)(SBAR (NP he)(VP (VBD had)(VP (RB n't)(VP (VBD earned)(NP it))))))))))))(. ?))) |ET| 
-1  |BT| (SBARQ (WHNP (WDT what)(NN weapon))(SBARQ (SQ (VBZ is)(SQ (NP (NP (DT the)(NP (JJ mythological)(NN character)))(NP (NNP Apollo)(NP (JJS most)(NN proficient))))(PP with)))(. ?))) |ET| 
1  |BT| (SBARQ (WHNP (WDT what)(NP (CD two)(NP (JJ European)(NNS countries))))(SBARQ (SQ (VBD entered)(NP (NP (DT the)(NN War))(PP (IN of)(NP (JJ American)(NP (NP Independence)(PP (IN against)(NP (DT the)(NNPS British))))))))(. ?))) |ET| 
-1  |BT| (SBARQ (WHNP what)(SBARQ (SQ (VBP are)(NP (NP some)(PP (IN of)(NP (NP (DT the)(NP (JJ significant)(NP (JJ historical)(NNS events))))(PP (IN of)(NP (DT the)(NN 1990s)))))))(. ?))) |ET| 
1  |BT| (SBARQ (WHNP (WDT what)(NP (JJ Indian)(NN tribe)))(SBARQ (SQ (VBZ is)(SQ (NP (NN F)(NP (NNP Troop)(NP (ADJP (RB perpetually)(VBG doing))(NN battle))))(PP with)))(. ?))) |ET| 
-1  |BT| (SBARQ (WHNP (WDT what)(NP (CD 1966)(NNS boob)))(SBARQ (SQ (NP (JJ tube)(NN bomb))(VP (VBD took)(VP (VB astronauts)(VP (PRT back)(PP (TO to)(NP (JJ prehistoric)(NNS times)))))))(. ?))) |ET| 
1  |BT| (SBARQ (WHNP what)(SBARQ (SQ (VBD was)(NP (NP (NP (NP (DT the)(NN name))(PP (IN of)(NP (DT the)(NN daughter))))(PP (IN of)(NP (DT the)(NP (NNP Virginia)(NP (NN chief)(NN Powhatan))))))(PP (IN that)(NP (VBN married)(NP (NNP John)(NNP Rolfe))))))(. ?))) |ET| 
-1  |BT| (SBARQ (WHNP (WHNP (WDT what)(NN deck))(PP (IN of)(NP cards)))(SBARQ (SQ (VBZ includes)(NP (NP (DT the)(NNP Wheel))(PP (IN of)(NP (NNP Fortune)(NP (, ,)(NP (DT the)(NP (NNP Lovers)(NP (, ,)(NP (CC and)(NNP Death))))))))))(. ?))) |ET| 
1  |BT| (SBARQ (WHNP what)(SBARQ (SQ (NP (JJ attracts)(NN tourists))(PP (TO to)(NP Reims)))(. ?))) |ET| 
-1  |BT| (SBARQ (WHNP what)(SBARQ (SQ (NP (JJ predators)(NN exist))(PP (IN on)(NP Antarctica)))(. ?))) |ET| 
1  |BT| (SBARQ (WHNP (WHNP (WDT what)(NN percentage))(PP (IN of)(NP Americans)))(SBARQ (SQ (VBP own)(NP (PRP$ their)(NN homes)))(. ?))) |ET| 
-0.72771942092597474704973592452006  |BT| (SBARQ (WHNP what)(SBARQ (SQ (VBD caused)(NP (NP (NNP Harry)(NP (NNP Houdini)(POS 's)))(NN death)))(. ?))) |ET| 
1  |BT| (SBARQ (WHNP what)(SBARQ (SQ (NP (NP (JJ mountains)(NN lie))(PP (IN between)(NP (DT the)(NP (NNP Arkansas)(NP (CC and)(NNP Missouri))))))(VP rivers))(. ?))) |ET| 
-1  |BT| (SBARQ (WHNP (WDT what)(NN TV))(SBARQ (SQ (NP (NN game)(NN show))(VP (ADVP once)(VP (VBD saw)(SBAR (NP (DT a)(NN contestant))(VP (VB admit)(S (TO to)(VP (VBG picking)(NP (NP (PRP$ his)(NN toes))(PP (IN in)(NP (DT the)(NN shower)))))))))))(. ?))) |ET| 
1  |BT| (SBARQ (WHNP what)(SBARQ (SQ (VBZ is)(NP (NP (NNP Stefan)(NP (NNP Edberg)(POS 's)))(NP (JJ native)(NN country))))(. ?))) |ET| 
0.10441892009961839526965832192218  |BT| (SBARQ (WHNP (WHADJP (WRB how)(JJ many))(NNS hands))(SBARQ (SQ (VBZ does)(SQ (NP (NNP Bjorn)(NNP Borg))(VP (VB use)(SBAR (WHADVP when)(S (VBG hitting)(NP (PRP$ his)(NN forehand)))))))(. ?))) |ET| 
1  |BT| (SBARQ (WHADVP when)(SBARQ (SQ (VBD did)(SQ (NP CNN)(VP (VB go)(PP (IN on)(NP (DT the)(NN air))))))(. ?))) |ET| 
-1  |BT| (SBARQ (WHADVP why)(SBARQ (SQ (VBP do)(SQ (RB n't)(SQ (NP you)(VP (VB guys)(VP (VB have)(NP (NP (DT some)(NN sort))(PP (IN of)(NP (NP contest)(SBAR (WHADVP where)(S (S (NP you)(VP (VB ask)(NP (DT a)(NN question))))(S (CC and)(S (NP (JJ whoever)(NN finds))(S (NP (DT the)(NNS answers))(VP (VB wins)(NP (DT a)(NN prize))))))))))))))))(. ?))) |ET| 
1  |BT| (SBARQ (WHNP what)(SBARQ (SQ (NP (JJ ISPs)(NN exist))(PP (IN in)(NP (DT the)(NNP Caribbean))))(. ?))) |ET| 
-1  |BT| (SBARQ (WHNP what)(SBARQ (SQ (VBZ 's)(NP (DT the)(NP (NP (JJ second-most-used)(NN vowel))(PP (IN in)(NP English)))))(. ?))) |ET| 
0.76682108083530575726172173744999  |BT| (SBARQ (WHNP (WDT what)(NN TV))(SBARQ (SQ (NP (JJ sitcom)(NN character))(VP (VBD had)(SBAR (NP (DT the)(NN maiden))(VP (VB name)(NP (NNP Ethel)(NNP Potter))))))(. ?))) |ET| 
-1  |BT| (SBARQ (WHNP (WDT what)(NN fastener))(SBARQ (SQ (VBD did)(SQ (NP (NNP Whitcomb)(NNP Judson))(VP (VB patent)(PP (IN in)(NP 1893)))))(. ?))) |ET| 
1  |BT| (SBARQ (WHNP (WDT what)(NN company))(SBARQ (SQ (VBZ 's)(SQ (VBZ logo)(SQ (VBZ is)(NP (DT a)(NP (`` ``)(NP (NP (NN W)('' ''))(PP (IN in)(NP (DT a)(NN circle)))))))))(. ?))) |ET| 
-1  |BT| (SBARQ (WHADVP how)(SBARQ (SQ (VBZ is)(SQ (NP (NP (DT the)(NN election))(PP (IN of)(NP (DT a)(NP (NNP new)(NNP Pope)))))(VP (VBN announced)(PP (TO to)(NP (DT the)(NN world))))))(. ?))) |ET| 
1  |BT| (SBARQ (WHNP (WDT what)(NP (JJ video)(NP (NN game)(NN hero))))(SBARQ (SQ (VBP do)(SQ (NP (NP some)(PP (IN of)(NP (PRP$ his)(NN fans))))(VP (VB call)(NP Chomper))))(. ?))) |ET| 
-1  |BT| (SBARQ (WHNP (WDT what)(NP (JJ facial)(NN feature)))(SBARQ (SQ (ADVP typically)(SQ (VBZ contains)(PP (IN about)(NP (CD 55)(NNS hairs)))))(. ?))) |ET| 
1  |BT| (SBARQ (WHNP what)(SBARQ (SQ (VBZ is)(NP (NP (DT the)(NN speed))(PP (IN of)(NP (DT the)(NP (NNP Mississippi)(NNP River))))))(. ?))) |ET| 
-0.10368291229228095151615463009875  |BT| (SBARQ (WHNP what)(SBARQ (SQ (VBZ is)(NP (`` ``)(NP (NP (DT the)(NN bear))(PP (IN of)(NP (NN beers)('' ''))))))(. ?))) |ET| 
1  |BT| (SBARQ (WHADVP where)(SBARQ (SQ (MD must)(SQ (NP (DT a)(NP (JJ soccer)(NN goalie)))(VP (VB stand)(S (TO to)(VP (VB be)(VP (VBN permitted)(S (TO to)(VP (VB handle)(NP (DT the)(NN ball))))))))))(. ?))) |ET| 
-1  |BT| (S (NP (NN name)(NP (DT a)(NN technique)))(S (ADVP widely)(S (VP (VBN used)(S (TO to)(VP (VB detect)(NP (NN birth)(NN defects)))))(. ?)))) |ET| 
1  |BT| (SBARQ (WHNP what)(SBARQ (SQ (VBZ 's)(NP (NP (DT the)(NN nickname))(PP (IN of)(NP (JJ oddsmaker)(NP (NNP Jimmy)(NNP Snyder))))))(. ?))) |ET| 
-1  |BT| (SBARQ (WHNP what)(SBARQ (SQ (VBZ is)(NP (NP (DT the)(NP (JJ abbreviated)(NN expression)))(PP (IN for)(NP (NP (DT the)(NP (NNP National)(NNP Bureau)))(PP (IN of)(NP Investigation))))))(. ?))) |ET| 
1  |BT| (NP (WHNP who)(S (VBD were)(S (NP (DT the)(NP (`` ``)(NP (JJ filthiest)(NNS people))))(S (NP alive)(S (. ?)('' '')))))) |ET| 
-0.82496948231369993109751703741495  |BT| (NP (WHNP what)(S (VBZ is)(S (NP (NP (DT the)(NN meaning))(PP (IN of)(NP (NP (JJ W.B.)(NP (NNP Yeat)(POS 's)))(NN poem))))(S (, ,)(S (`` ``)(S (NP (DT The)(NP (NNP Three)(NNP Hermits)))(S (. ?)('' '')))))))) |ET| 
1  |BT| (SBARQ (WHNP what)(SBARQ (SQ (VBZ is)(NP (NP (DT the)(NP (JJ average)(NN cost)))(PP (IN for)(NP (NP (CD four)(NNS years))(PP (IN of)(NP (JJ medical)(NN school)))))))(. ?))) |ET| 
0.1757171916603996464356640672122  |BT| (SBARQ (WHADVP where)(SBARQ (SQ (VBZ is)(SQ (NP (DT the)(NP (NNP Abominable)(NNP Snowman)))(VP (VBD said)(S (TO to)(VP wander)))))(. ?))) |ET| 
0.7629024907757602225188975353376  |BT| (SBARQ (WHPP (IN in)(WHNP (WDT what)(NN year)))(SBARQ (SQ (VBD was)(SQ (NP (NNP De)(NNP Gaulle))(VP (VBN elected)(NP (NP president)(PP (IN of)(NP France))))))(. ?))) |ET| 
-1  |BT| (SBARQ (WHNP (WHNP (WDT what)(NN type))(PP (IN of)(NP bridge)))(SBARQ (SQ (VBZ is)(NP (DT the)(NP (NNP Golden)(NP (NNP Gate)(NNP Bridge)))))(. ?))) |ET| 
1  |BT| (SBARQ (WHNP what)(SBARQ (SQ (VBZ is)(NP (DT the)(NP (VBG leading)(NX (NX pecan)(NX (CC and)(NX (NX peanut)(NX (VBG growing)(NN state))))))))(. ?))) |ET| 
-1  |BT| (SBARQ (WHNP (WDT which)(NN mosquito))(SBARQ (SQ (VBZ 's)(NP (JJ bite)(NX (NX (NN draws)(NN blood))(NX (, ,)(NX (NX DT)(NX (NX NN)(NX (NX CC)(NX (NN DT)(NN NN)))))))))(. .))) |ET| 
1  |BT| (SBARQ (WHNP (WDT what)(NP (CD two)(NP (NNP South)(NP (JJ American)(NNS countries)))))(SBARQ (SQ (VBP do)(SQ (RB n't)(SQ (VBZ border)(NP Brazil))))(. ?))) |ET| 
-1  |BT| (SBARQ (WHNP what)(SBARQ (SQ (VBZ is)(NP (NP (DT the)(NP (JJ classic)(NN definition)))(PP (IN of)(NP (JJ tragic)(NN hero)))))(. ?))) |ET| 
1  |BT| (SBARQ (WHNP (WDT what)(NN country))(SBARQ (SQ (VBD did)(NP (NP (DT the)(NP (NNP Nazis)(NNP occupy)))(PP (IN for)(NP (CD 1)(NX (, ,)(NX (NX CD)(NX (NX NNS)(NX (NX IN)(NX (NX NNP)(NX (NN NNP)(NN NNP)))))))))))(. .))) |ET| 
-1  |BT| (SBARQ (WHNP (WDT what)(NN product))(SBARQ (SQ (VBD did)(SQ (NP (NNP Robert)(NNP Conrad))(VP (NP (JJ dare)(NNS people))(S (TO to)(VP (VB knock)(VP (PRT off)(NP (PRP$ his)(NN shoulder))))))))(. ?))) |ET| 
1  |BT| (SBARQ (WHNP what)(SBARQ (SQ (VBZ is)(NP (NP (DT the)(NN occupation))(PP (IN of)(NP (NNP Nicholas)(NNP Cage)))))(. ?))) |ET| 
-1  |BT| (SBARQ (WHNP what)(SBARQ (SQ (VBZ is)(NP (NP (DT the)(NN mascot))(PP (IN for)(NP (NNP Notre)(NP (NNP Dame)(NNP University))))))(. ?))) |ET| 
1  |BT| (SBARQ (WHNP (WHNP (WDT what)(NN time))(PP (IN of)(NP day)))(SBARQ (SQ (VBD did)(SQ (NP (NNP Emperor)(NNP Hirohito))(VP die)))(. ?))) |ET| 
-1  |BT| (SBARQ (WHNP (WDT what)(NP (NP types)(PP (IN of)(NP water))))(SBARQ (SQ (VBZ pollution)(SQ (VBP are)(NP there)))(. ?))) |ET| 
0.98000863619017497541108241421171  |BT| (SBARQ (WHADVP (WRB how)(RB much))(SBARQ (SQ (MD would)(SQ (NP it)(VP (VB cost)(S (TO to)(VP (VB purchase)(NP (NP (NP (DT a)(NN 2-foot-square))(NP (NN party)(NN tent)))(PRN (, ,)(PRN (PP (IN with)(NP sides))(, ,)))))))))(. ?))) |ET| 
-1  |BT| (SBARQ (WHNP (WDT what)(NN film))(SBARQ (SQ (VBD did)(SQ (NP (NNP Lee)(NNP Marvin))(VP (VB win)(NP (DT the)(NP (CD 1965)(NP (JJS best)(NN actor)))))))(SBARQ (SQ (NP Oscar)(PP for))(. ?)))) |ET| 
1  |BT| (SBARQ (WHNP (WDT what)(NP (NP schools)(PP (IN in)(NP (DT the)(NP (NNP Washington)(NP (, ,)(NP (JJ DC)(NN NN))))))))(SBARQ (SQ (VBZ NN)(NP (NP (JJ VBP)(NN NN))(NP (JJ NN)(NP (JJ NN)(NN NN)))))(. .))) |ET| 
-1  |BT| (SBARQ (WHADVP how)(SBARQ (SQ (MD can)(SQ (NP I)(VP (VB find)(VP (VB online)(VP (VBG spelling)(NP (, ,)(NP (CC and)(NP (NP (JJ punctuation)(NN drills))(PP (IN for)(NP (PRP$ my)(NP (JJ 6th)(NN grader))))))))))))(. ?))) |ET| 
1  |BT| (SBARQ (WHNP (WDT what)(NN state))(SBARQ (SQ (VBZ is)(SQ (NP (NNP John)(NP (NNP F.)(NNP Kennedy)))(VP (VBN buried)(PP in))))(. ?))) |ET| 
-1  |BT| (SBARQ (WHNP (WHNP (WDT what)(NN breed))(PP (IN of)(NP dog)))(SBARQ (SQ (VBD was)(NP (DT the)(NP (`` ``)(NP (JJ Little)(NP (NNP Rascals)(NP ('' '')(NN dog)))))))(. ?))) |ET| 
1  |BT| (SBARQ (WHNP what)(SBARQ (SQ (VBZ is)(NP (NP (DT the)(NP (JJ full)(NN name)))(PP (IN of)(NP (DT the)(NN man)))))(SBARQ (WHNP who)(SBARQ (SQ (VBD invented)(SQ (NP (DT the)(NP (JJ multicolored)(NN game)))(VP (VB cube)(SBAR (WHNP that)(S (VBZ has)(NP (NP (CD 42.3)(NNS quintillion))(NP (JJ potential)(NN combinations))))))))(. ?))))) |ET| 
-0.70853210043148051600070402855636  |BT| (NP (WHNP what)(S (VBZ is)(VP (VBN considered)(S (NP (DT the)(NP (JJ costliest)(NN disaster)))(S (NP (DT the)(NP (NN insurance)(NN industry)))(S (VP (VBZ has)(VP (ADVP ever)(VBN faced)))(. ?))))))) |ET| 
1  |BT| (SBARQ (WHNP (WDT what)(NN spy))(SBARQ (SQ (VBZ novelist)(NP (NP (NP (ADJP (VBN served)(PP (IN as)(NP Moscow)))(NN correspondent))(PP (IN for)(NP (NNP Reuter)(NP (CC and)(NP (DT The)(NNPS Times))))))(PP (IN of)(NP London))))(. ?))) |ET| 
-1  |BT| (SBARQ (WHNP what)(SBARQ (SQ (VBD were)(NP (NP (NP (JJ popular)(NN songs))(NP (CC and)(NNS types)))(PP (IN of)(NP (NP songs)(PP (IN in)(NP (DT the)(NN 1920s)))))))(. ?))) |ET| 
1  |BT| (SBARQ (WHNP what)(SBARQ (SQ (VBP are)(NP (DT the)(NP (NNP Benelux)(NNS countries))))(. ?))) |ET| 
-1  |BT| (SBARQ (WHNP (WDT what)(NP (NP (NN game)(POS 's))(NN board)))(SBARQ (SQ (VBZ shows)(NP (NP (DT the)(NN territories))(PP (IN of)(NP (NNP Irkutsk)(NP (, ,)(NP (NNP Yakutsk)(NP (CC and)(NNP Kamchatka))))))))(. ?))) |ET| 
1  |BT| (SBARQ (WHNP what)(SBARQ (SQ (VBD was)(NP (DT the)(NP (NP (NNP U.S.)(NP (NN highway)(NP (NN death)(NN toll))))(PP (IN in)(NP 1969)))))(. ?))) |ET| 
-0.026952933720408911444366140131024  |BT| (SBARQ (WHNP what)(SBARQ (SQ (VBP are)(NP (DT the)(NP (CD seven)(NNS virtues))))(. ?))) |ET| 
1  |BT| (NP (VB name)(NP (NP (NNP Alvin)(POS 's))(NN brothers))) |ET| 
-0.73054984276527268338696785576758  |BT| (SBARQ (WHNP (WDT what)(NN color))(SBARQ (SQ (VBZ bottles)(SQ (VBP do)(SQ (NP (JJ good)(NP (NNP Rhine)(NNS wines)))(VP (VB come)(PP in)))))(. ?))) |ET| 
1  |BT| (SBARQ (WHNP (WHNP (WDT what)(NN day))(PP (IN of)(NP (DT the)(NN week))))(SBARQ (SQ (VBZ sees)(NP (DT the)(NP (ADJP (RBS most)(JJ fatal))(NP (NN car)(NN accidents)))))(. ?))) |ET| 
-0.88956541336895911253890290026902  |BT| (SBARQ (WHNP what)(SBARQ (SQ (VBZ is)(NP (NP (DT the)(NP (JJS fastest)(NP (JJ commercial)(NN automobile))))(SBAR (WHNP that)(S (MD can)(VP (VB be)(VP (VBN bought)(PP (IN in)(NP (DT the)(NNP US)))))))))(. ?))) |ET| 
1  |BT| (SBARQ (WHNP (WDT what)(NP (JJ European)(NN city)))(SBARQ (SQ (VBP do)(SQ (NP Nicois)(VP (VB live)(PP in))))(. ?))) |ET| 
-1  |BT| (SBARQ (WHADVP how)(SBARQ (SQ (VBP do)(SQ (NP I)(VP (VB log)(PP (IN on)(S (TO to)(VP (NP (NN home)(NN page))(PP (IN at)(NP (NP (NNP Headquarters)(NNP U.S.))(NP (JJ European)(NN Command))))))))))(. ?))) |ET| 
1  |BT| (SBARQ (WHNP what)(SBARQ (SQ (VBZ is)(NP (NP (DT the)(NN city))(SBAR (WHPP (IN in)(WHNP which))(S (NP (NNP Maurizio)(NNP Pellegrin))(VP (VBZ lives)(VP called))))))(. ?))) |ET| 
-1  |BT| (NP (VB name)(NP (NP (DT a)(NN film))(SBAR (WHPP (IN in)(WHNP which))(S (NP (NNP Jude)(NNP Law))(S (VP acted)(. .)))))) |ET| 
0.88436775949469170754468905215617  |BT| (SBARQ (WHADVP where)(SBARQ (SQ (MD can)(SQ (NP I)(VP (VB buy)(VP (VB movies)(PP (IN on)(NP (JJ videotape)(NN online)))))))(. ?))) |ET| 
-1  |BT| (SBARQ (WHNP what)(SBARQ (SQ (VBZ is)(NP (NP (NNP Mississippi)(POS 's))(NP (NN state)(NN animal))))(. ?))) |ET| 
1  |BT| (S (VP (VB name)(NP (CD 11)(NP (JJ famous)(NN martyrs))))(. .)) |ET| 
-1  |BT| (SBARQ (WHNP (WDT what)(NP (JJ soft)(NN drink)))(SBARQ (SQ (MD would)(SQ (VBP provide)(SQ (NP me)(VP (PP (IN with)(NP (DT the)(NP (JJS biggest)(NN intake))))(PP (IN of)(NP caffeine))))))(. ?))) |ET| 
1  |BT| (SBARQ (WHNP what)(SBARQ (SQ (VBZ is)(NP (NP (DT the)(NP (NN state)(NN nickname)))(PP (IN of)(NP Mississippi))))(. ?))) |ET| 
-1  |BT| (SBARQ (WHNP what)(SBARQ (SQ (VBZ is)(NP (NP (NP (DT the)(NP (JJ daily)(NN requirement)))(PP (IN of)(NP (JJ folic)(NN acid))))(PP (IN for)(NP (DT an)(NP (JJ expectant)(NN mother))))))(. ?))) |ET| 
1  |BT| (SBARQ (WHNP (WDT what)(NN actor))(SBARQ (SQ (VBD starred)(SQ (PP (IN in)(NP (JJ 1980's)(NP (NP (NNP Blue)(NNP Lagoon))(NP (, ,)(NP (JJ 1982's)(NP (DT The)(NP (NP (NNP Pirate)(NNP Movie))(NP (CC and)(NP (JJ 1983's)(NP (DT A)(NN Night)))))))))))(PP (IN in)(NP Heaven))))(. ?))) |ET| 
-1  |BT| (SBARQ (WHNP (WDT what)(NN movie))(SBARQ (SQ (VBD did)(SQ (NP (NNP Madilyn)(NNP Kahn))(VP (VB star)(PP (IN in)(PP (IN with)(NP (NNP Gene)(NNP Wilder)))))))(. ?))) |ET| 
1  |BT| (SBARQ (WHNP what)(SBARQ (SQ (NP (NN girl)(POS 's))(VP (VB name)(VP (VBZ is)(VP (NP (`` ``)(NP (NNP Teddy)('' '')))(ADVP (NP (DT an)(NP (JJ affectionate)(NN form)))(IN of))))))(. ?))) |ET| 
-0.24713707400875195574485587712843  |BT| (S (VP (VB name)(NP (NP (DT a)(NN tiger))(SBAR (WHNP that)(S (VBZ is)(ADJP extinct)))))(. .)) |ET| 
1  |BT| (SBARQ (WHNP (WDT what)(NN arch))(SBARQ (SQ (MD can)(SQ (NP you)(VP (VB see)(PP (IN from)(NP (NP (DT the)(NNP Place))(PP (IN de)(NP (NNP la)(NNP Concorde))))))))(. ?))) |ET| 
-1  |BT| (SBARQ (WHNP what)(SBARQ (SQ (MD can)(SQ (NP I)(VP (VB use)(S (TO to)(VP (VB remove)(NP (NP (DT the)(NN stubborn))(NP (NP (JJ gummed)(NN labels))(PP (IN from)(NP (DT some)(NN diskettes))))))))))(. ?))) |ET| 
0.86781874700089978169614823855227  |BT| (SBARQ (WHNP who)(SBARQ (SQ (VBD graced)(SQ (NP (DT the)(NN airwaves))(VP (PP (IN with)(NP (JJ such)(NN pearls)))(SBAR (IN as)(S (`` ``)(S (S (NP (NNP Do)(NNP ya))(S (VP (VB lo-o-ove)(NP me))(. ?)))(S (NP (NAC (NNP Get)(NAC (NNP naked)(, ,)))(NN baby))(S (. !)('' '')))))))))(. ?))) |ET| 
-1  |BT| (SBARQ (WHNP (WDT what)(NN product))(SBARQ (SQ (VBZ does)(SQ (NP (`` ``)(NP (NNP Mrs.)(NP (NNP Olsen)('' ''))))(VP promote)))(. ?))) |ET| 
1  |BT| (SBARQ (WHNP who)(SBARQ (SQ (VBD was)(NP (NP chairman)(PP (IN of)(NP (NP (DT the)(NP (NNP Senate)(NP (JJ select)(NN committee))))(SBAR (WHNP that)(S (VBD tried)(S (TO to)(VP (VB get)(PP (TO to)(NP (NP (DT the)(NN bottom))(PP (IN of)(NP Watergate))))))))))))(. ?))) |ET| 
-1  |BT| (SBARQ (WHNP what)(SBARQ (SQ (VBD was)(NP (NP (DT the)(NN name))(PP (IN of)(NP (PP (IN that)(NP (JJ popular)(NN song)))(NP (DT the)(NP (NNP Creeps)(NNP sang)))))))(. ?))) |ET| 
0.72203366470985119729419920986402  |BT| (SBARQ (WHADVP where)(SBARQ (SQ (VBZ does)(SQ (NP (NNP Buzz)(NNP Aldrin))(VP (VBP want)(S (TO to)(VP (VB build)(NP (NP (DT a)(NN permanent))(NP (, ,)(NP (JJ manned)(NP (NN space)(NN station))))))))))(. ?))) |ET| 
-1  |BT| (SBARQ (WHADVP how)(SBARQ (SQ (VBD was)(SQ (NP (DT the)(NP (NN element)(NN calcium)))(VP named)))(. ?))) |ET| 
1  |BT| (SBARQ (WHNP what)(SBARQ (SQ (VBD was)(NP (PRP$ her)(NP (JJ real)(NN name))))(. ?))) |ET| 
-1  |BT| (SBARQ (WHNP (WDT what)(NNS events))(SBARQ (SQ (VBD happened)(NP (NP January)(NP (CD 26)(NP (, ,)(CD 1978)))))(. ?))) |ET| 
1  |BT| (SBARQ (WHNP (WDT what)(NP (JJ piano)(NN company)))(SBARQ (SQ (VBZ claims)(SQ (NP (PRP$ its)(NN product))(VP (VBZ is)(NP (NP (DT the)(NP (`` ``)(NNP Instrument)))(PP (IN of)(NP (DT the)(NP (NN immortals)('' ''))))))))(. ?))) |ET| 
-1  |BT| (SBARQ (WHNP what)(SBARQ (SQ (VBD was)(VP (VBN organized)(PP (IN as)(NP (NP (NP (NP (NP (DT a)(NP (NNP Confederate)(NP (NN veterans)(POS '))))(NP (JJ social)(NN club)))(PP (IN in)(NP Pulaski)))(PRN (, ,)(PRN (PP (IN in)(NP Tennessee))(, ,))))(PP (IN in)(NP 1866))))))(. ?))) |ET| 
0.84192855697537893888693361077458  |BT| (SBARQ (WHADVP when)(SBARQ (SQ (VBD did)(SQ (NP (NNP Mount)(NP (NNP St.)(NNP Helen)))(VP (ADVP last)(VP (VB have)(NP (DT a)(NP (JJ significant)(NN eruption)))))))(. ?))) |ET| 
-1  |BT| (SBARQ (WHNP (WDT what)(NN therapy))(SBARQ (SQ (VBZ attempts)(S (TO to)(VP (VB elicit)(NP (DT the)(NP (`` ``)(NP (JJ primal)(NP (NN scream)('' ''))))))))(. ?))) |ET| 
1  |BT| (SBARQ (WHNP what)(SBARQ (SQ (VBD was)(VP (VBN known)(PP (IN as)(NP (DT the)(NP (NNP Spice)(NNP Island))))))(. ?))) |ET| 
-1  |BT| (SBARQ (WHADVP why)(SBARQ (SQ (VBD were)(SQ (NP people)(VP (VBN recruited)(PP (IN for)(NP (DT the)(NP (NNP Vietnam)(NNP War)))))))(. ?))) |ET| 
1  |BT| (SBARQ (WHNP (WDT what)(NN ocean))(SBARQ (SQ (VBZ is)(NP (NP (DT the)(JJS largest))(PP (IN in)(NP (DT the)(NN world)))))(. ?))) |ET| 
-0.91409274328052303459912764083128  |BT| (SBARQ (WHNP what)(SBARQ (SQ (VBZ is)(NP (NP (DT the)(NN purpose))(PP (IN of)(NP (DT a)(NP (NN car)(NN bra))))))(. ?))) |ET| 
1  |BT| (SBARQ (WHNP (WDT which)(NN company))(SBARQ (SBAR (WHNP that)(S (VBZ manufactures)(NP (JJ video-game)(NN hardware))))(SBARQ (SQ (VBZ sells)(NP (DT the)(NP (`` ``)(NP (JJ super)(NP (NN system)('' ''))))))(. ?)))) |ET| 
-1  |BT| (SBARQ (WHNP what)(SBARQ (SQ (VBD was)(NP (DT the)(NP (JJ first)(NP (JJ domesticated)(NN bird)))))(. ?))) |ET| 
1  |BT| (SBARQ (WHNP what)(SBARQ (SQ (VBD was)(SQ (NP (NP (DT the)(NN number))(PP (IN of)(NP (NP people)(PP (IN that)(NP (NNP Randy)(NP (NNP Steven)(NNP Craft)))))))(VP (VBD was)(VP (VBN convicted)(PP (IN of)(NP killing))))))(. ?))) |ET| 
-1  |BT| (SBARQ (WHNP (WDT what)(NP (NNP Hollywood)(NN dog)))(SBARQ (SQ (VBD died)(SQ (PP (IN in)(NP (NP (DT the)(NN arms))(PP (IN of)(NP (NNP Jean)(NNP Harlow)))))(PP (IN in)(NP 1932))))(. ?))) |ET| 
1  |BT| (SBARQ (WHNP what)(SBARQ (SQ (VBD was)(NP (NP (NNP Michelangelo)(POS 's))(NP (JJ last)(NN name))))(. ?))) |ET| 
-1  |BT| (SBARQ (WHNP what)(SBARQ (SQ (VBD was)(NP (NNP Mel)(NP (NP (NNP Gibson)(POS 's))(NP (JJ first)(NN movie)))))(. ?))) |ET| 
1  |BT| (SBARQ (WHNP what)(SBARQ (SQ (VBZ is)(NP (NP (NP (DT the)(NP (NP (NN student)(NN population))(PP (IN at)(NP (DT the)(NN University)))))(PP (IN of)(NP Massachusetts)))(PP (IN in)(NP Amherst))))(. ?))) |ET| 
-1  |BT| (SBARQ (WHNP what)(SBARQ (SQ (VBZ 's)(NP (NP (NP (DT the)(NP (JJ only)(NN work)))(PP (IN by)(NP Michelangelo)))(PP (IN that)(NP (JJ bears)(NP (PRP$ his)(NN signature))))))(. ?))) |ET| 
1  |BT| (SBARQ (WHNP (WDT what)(NP (VBG wrestling)(NN star)))(SBARQ (SQ (VBD became)(NP (`` ``)(NP (DT The)(NP (NNP Incredible)(NP (NNP Hulk)('' ''))))))(. ?))) |ET| 
-1  |BT| (SBARQ (WHNP (WDT what)(NN plant))(SBARQ (SQ (VBZ has)(SQ (NP (DT the)(JJS largest))(VP seed)))(. ?))) |ET| 
0.46040866484409376235831246049202  |BT| (SBARQ (WHNP who)(SBARQ (SQ (VBD was)(SQ (NP (NP (DT the)(NP (NP (JJ first)(NP (JJ American)(NN poet)))(SBAR (TO to)(VP (VB win)(NP (DT the)(NP (NNP Nobel)(NNP Prize)))))))(PP (IN for)(NP literature)))(VP (, ,)(PP (IN in)(NP 1948)))))(. ?))) |ET| 
-1  |BT| (SBARQ (WHNP what)(SBARQ (SQ (VBD was)(SQ (NP (DT the)(NN name))(VP (PP (IN of)(NP (DT the)(NN movie)))(SBAR (WHNP that)(S (VBD starred)(NP (NP (NNP Sharon)(NNP Stone))(NP (CC and)(NP (NNP Arnold)(NNP Schwarzenegger)))))))))(. ?))) |ET| 
0.98811362444612249600339737298782  |BT| (SBARQ (WHNP (WDT what)(NN actor))(SBARQ (SQ (ADVP first)(SQ (VBD portrayed)(NP (NNP James)(NNP Bond))))(. ?))) |ET| 
-1  |BT| (SBARQ (WHNP (WDT what)(NP (NNP Boris)(NP (NNP Pasternak)(NN book))))(SBARQ (SQ (VBD sold)(NP (NP (CD 5)(NP (, ,)(NP (CD 0)(NNS copies))))(SBAR (TO to)(VP (VB become)(NP (DT the)(NP (NP (JJ fiction)(NN best-seller))(PP (IN of)(NP 1958))))))))(. ?))) |ET| 
0.79733944865350858677288670151029  |BT| (SBARQ (WHNP who)(SBARQ (SQ (VBZ has)(NP (NP (JJR more)(NN DNA))(NP (NP (: -)(NP (DT a)(NN man)))(NP (CC or)(NP (DT a)(NN woman))))))(. ?))) |ET| 
-1  |BT| (SBARQ (WHNP (WDT what)(NN rum))(SBARQ (SQ (VBZ is)(NP (ADJP (RB so)(ADJP (`` ``)(ADJP (JJ mixable)(ADJP ('' '')(SBAR (NP it)(VP (VBZ is)(NP (DT a)(NN one-brand))))))))(NN bar)))(. ?))) |ET| 
1  |BT| (SBARQ (WHNP what)(SBARQ (SQ (VBD was)(NP (NP (NP (DT the)(NN name))(PP (IN of)(NP (DT the)(NN 187s))))(NP (NP (NNP Irish)(NP (NP (JJ terrorist)(NN group))(PP (IN in)(NP Pennsylvania))))(NP (VBG mining)(NNS areas)))))(. ?))) |ET| 
-1  |BT| (SBARQ (WHNP (WDT what)(NP (NNP Vladimir)(NP (NNP Nabokov)(NN novel))))(SBARQ (SQ (VBZ features)(NP (NP (NNP Professor)(NNP Humbert))(PP (IN in)(NP (NP love)(PP (IN with)(NP (DT a)(NP (JJ 12-year-old)(NN girl))))))))(. ?))) |ET| 
1  |BT| (SBARQ (WHNP (WDT what)(NN sun-blasted))(SBARQ (SQ (NP (, ,)(NP (JJ 14-mile)(NP (JJ wide)(NN valley))))(VP (VBZ is)(ADJP (RB just)(ADJP (JJ north)(PP (IN of)(NP (DT the)(NP (NNP Mojave)(NN desert))))))))(. ?))) |ET| 
-0.0046193803135480410171354037629499  |BT| (SBARQ (WHNP what)(SBARQ (SQ (VBZ makes)(NP (JJ popcorn)(NN pop)))(. ?))) |ET| 
0.83382889735239129613830755261006  |BT| (SBARQ (WHNP (WDT what)(NP (NP (NN country)(POS 's))(NNS people)))(SBARQ (SQ (VBP are)(SQ (NP (DT the)(NP (JJ top)(NN television)))(VP watchers)))(. ?))) |ET| 
-1  |BT| (SBARQ (WHPP (IN on)(WHNP (WDT what)(NN T.V.)))(SBARQ (SQ (VBP show)(SQ (MD could)(SQ (NP (NNP Tom)(NNP Terrific))(VP (VB be)(VP found)))))(. ?))) |ET| 
1  |BT| (SBARQ (WHNP what)(SBARQ (SQ (VBZ is)(NP (NP (NP (DT the)(NN brightest))(NP (NN star)(NN visible)))(PP (IN from)(NP Earth))))(. ?))) |ET| 
-0.99469186480995186450115852494491  |BT| (SBARQ (WHNP what)(SBARQ (SQ (VBD was)(NP (NP (NP (DT the)(NP (JJ top)(NN box)))(NP (NN office)(NN movie)))(PP (IN in)(NP (NNP April)(CD 1998)))))(. ?))) |ET| 
0.68372006057428036385203995450865  |BT| (SBARQ (WHADVP (WRB how)(RB long))(SBARQ (SQ (MD should)(SQ (NP (DT a)(NN person))(VP (VB wash)(NP (NP (PRP$ their)(NNS hands))(SBAR (IN before)(S (NP they)(VP (VBP are)(ADJP clean))))))))(. ?))) |ET| 
-1  |BT| (SBARQ (WHNP what)(SBARQ (SQ (NP (VBG gaming)(NNS devices))(VP (VBD were)(VP (VBN dubbed)(S (`` ``)(S (NP (NNP Mississippi)(NP (NN marbles)('' '')))(S (CC and)(S (`` ``)(S (NNP Memphis)(S (NNS dominoes)('' ''))))))))))(. ?))) |ET| 
0.74003610017857468506008444819599  |BT| (SBARQ (WHNP (WDT what)(NN lawyer))(SBARQ (SQ (VBD won)(SQ (NP (NP (NP (DT the)(NP (JJS largest)(NP (JJ divorce)(NN settlement))))(NP (, ,)(NP (NP ($ $)(NP (CD 85)(CD million)))(, ,))))(PP (IN in)(NP (NP (NNP U.S.)(NN history))(PP (IN for)(NP (NNP Sheika)(NNP Dena))))))(VP Al-Farri)))(. ?))) |ET| 
-1  |BT| (SBARQ (WHADVP how)(SBARQ (SQ (MD can)(SQ (NP I)(VP (VB get)(NP (NP (DT some)(NP (JJ free)(NP (JJ technical)(NN information))))(PP (IN on)(NP (NNP Electric)(NNP Vehicle)))))))(. ?))) |ET| 
1  |BT| (SBARQ (WHNP what)(SBARQ (SQ (VBZ 's)(NP (NP (DT the)(NP (JJS tallest)(NN building)))(PP (IN in)(NP (NNP New)(NP (NNP York)(NNP City))))))(. ?))) |ET| 
-1  |BT| (SBARQ (WHNP what)(SBARQ (SQ (VBP are)(SQ (NP (NP (DT the)(NP (ADJP (RBS most)(JJ common))(NN elements)))(PP (IN in)(NP (DT the)(NP (NNP Earth)(POS 's)))))(VP crust)))(. ?))) |ET| 
0.6739432248459201746371149965853  |BT| (SBARQ (WHNP who)(SBARQ (SQ (VBD declared)(SQ (: :)(S (`` ``)(S (S (NP I)(VP (VB am)(VP (PRT down)(PP (IN on)(NP whores)))))(S (CC and)(S (NP I)(S (NP (JJ shan)(NN 't))(VP (VB stop)(VP (VBG ripping)(NP (PRP them)('' '')))))))))))(. ?))) |ET| 
-1  |BT| (SBARQ (WHNP (WDT what)(NN creature))(SBARQ (SQ (VBZ scares)(NP (NP people)(PP (IN in)(NP (NP (DT the)(NN film))(NP (`` ``)(NP (NNP Jaws)('' '')))))))(. ?))) |ET| 
1  |BT| (SBARQ (WHADVP where)(SBARQ (SQ (MD can)(SQ (NP I)(VP (VB find)(NP (NP (NP (NP (DT a)(NN review))(PP (IN of)(NP Nightmare)))(PP (IN on)(NP (NNP Elm)(NNP Street))))(PP (IN in)(NP (DT a)(NP (NN film)(NN journal))))))))(. ?))) |ET| 
-1  |BT| (S (VP (VB give)(NP (NP (NP (DT a)(NN reason))(PP (IN for)(NP (NNP American)(NNPS Indians))))(NP (VB oftentimes)(NP (VBG dropping)(NP (PRT out)(PP (IN of)(NP school)))))))(. .)) |ET| 
1  |BT| (SBARQ (WHNP (WDT what)(NN dictator))(SBARQ (SQ (VBZ has)(NP (NP (DT the)(NN nickname))(NP (`` ``)(NP (NNP El)(NP (NNP Maximo)('' ''))))))(. ?))) |ET| 
-1  |BT| (SBARQ (WHNP (WHNP (WDT what)(NN kind))(PP (IN of)(NP file)))(SBARQ (SQ (VBZ has)(NP (DT the)(NP (JJ extension)(NN .dbf))))(. ?))) |ET| 
1  |BT| (SBARQ (WHNP what)(SBARQ (SQ (VBP are)(NP (NP (DT the)(NNS names))(PP (IN of)(NP (NP (DT the)(NP (NN tourist)(NNS attractions)))(PP (IN in)(NP Reims))))))(. ?))) |ET| 
-0.75656819649640327796191741072107  |BT| (SBARQ (WHNP what)(SBARQ (SQ (VBP are)(NP (NP (DT the)(NP (NN living)(NNS conditions)))(PP (IN in)(NP Cuba))))(. ?))) |ET| 
1  |BT| (SBARQ (WHNP (WDT what)(NN city))(SBARQ (SQ (VBZ is)(NP (ADJP (RB sometimes)(VBN called))(NN Gotham)))(. ?))) |ET| 
-1  |BT| (SBARQ (WHNP (WDT what)(NN horse))(SBARQ (SQ (VBD did)(NP (NNP Zorro)(NNP ride)))(. ?))) |ET| 
1  |BT| (SBARQ (WHNP (WDT what)(NP (JJ 19th-century)(NN painter)))(SBARQ (SQ (VBD died)(PP (IN in)(NP (DT the)(NP (NNP Marquesas)(NNPS Islands)))))(. ?))) |ET| 
-1  |BT| (SBARQ (WHNP (WDT what)(NP (JJ household)(NN facility)))(SBARQ (SQ (VBZ contains)(NP (DT a)(NX (NX (NN float)(NN ball))(NX (, ,)(NX (NX ballcock)(NX (, ,)(NX (CC and)(NX (NN overflow)(NN tube)))))))))(. ?))) |ET| 
0.65727293705682121593980582474614  |BT| (SBARQ (WHNP (WHNP (WHADJP (WRB how)(JJ many))(NNS types))(PP (IN of)(NP (NN dogs)(POS '))))(SQ (VBZ tails)(SQ (VBP are)(SQ (NP there)(NP (: -)(CD three)))))) |ET| 
-1  |BT| (SBARQ (WHADVP why)(SBARQ (SQ (VBZ is)(NP (NP (JJ black)(NP (DT the)(NN color)))(PP (IN of)(S (VBG mourning)(PP (IN in)(NP (DT the)(NN West)))))))(. ?))) |ET| 
1  |BT| (SBARQ (WHNP (WDT what)(NN year))(SBARQ (SQ (VBD did)(SQ (NP (DT the)(NP (NNP Vietnam)(NNP War)))(VP end)))(. ?))) |ET| 
-1  |BT| (SBARQ (WHNP (WDT what)(NP (CD 2)(NNS statues)))(SBARQ (SQ (VBD did)(SQ (NP France)(VP (VB give)(PP (TO to)(NP (JJ other)(NNS countries))))))(. ?))) |ET| 
1  |BT| (SBARQ (WHNP (WDT what)(NN company))(SBARQ (SQ (VBZ tabulates)(NP (NP (DT the)(NN ballots))(PP (IN in)(S (VBG voting)(PP (IN for)(NP (DT the)(NP (NNP Academy)(NNP Awards))))))))(. ?))) |ET| 
-1  |BT| (SBARQ (WHNP (WDT what)(NN animal))(SBARQ (SQ (VBZ has)(NP (DT the)(NP (JJS biggest)(NNS eyes))))(. ?))) |ET| 
1  |BT| (SBARQ (WHADVP where)(SBARQ (SQ (VBP do)(SQ (NP people)(VP (NP (NN mountain)(NN climb))(PP (IN in)(NP Nepal)))))(. ?))) |ET| 
-0.36558520751161732720291297482618  |BT| (SBARQ (WHADVP how)(SBARQ (SQ (VBP do)(SQ (NP I)(VP (VB make)(NP (NP (NN fuel)(NN bricks))(PP (IN from)(NP (JJ recycled)(NN newspaper)))))))(. ?))) |ET| 
0.84955380688310100367743871174753  |BT| (SBARQ (WHNP (WDT what)(NN country))(SBARQ (SQ (VBZ contains)(NP (NP (NNP Africa)(POS 's))(NP (JJ northernmost)(NN point))))(. ?))) |ET| 
-1  |BT| (SBARQ (WHNP what)(SBARQ (SQ (VBD was)(SQ (VBZ cash-conscious)(NP (NP (NP (NNP Colonel)(NNP Edwin))(NP (NNP L.)(NNP Drake)))(NP (DT the)(NP (ADJP (JJ first)(PP to))(NN drill))))))(. ?))) |ET| 
1  |BT| (SBARQ (WHADVP when)(SBARQ (SQ (VBZ is)(SQ (NP (DT the)(NN site))(VP (VB www.questions.com)(S (VBG going)(S (TO to)(VP open))))))(. ?))) |ET| 
0.23313988118103071145448268453038  |BT| (SBARQ (WHNP (WDT what)(NN city))(SBARQ (SQ (VBD gained)(NP (NP renown)(PP (IN for)(NP (PRP$ its)(NP (JJ pea-soup)(NN fogs))))))(. ?))) |ET| 
-1  |BT| (SBARQ (WHNP (WDT what)(NN instrument))(SBARQ (SQ (VBZ is)(SQ (NP (NP (NNP Ray)(NNP Charles))(VP (ADVP best)(VP (VBN known)(PP for))))(VP playing)))(. ?))) |ET| 
1  |BT| (SBARQ (WHNP what)(SBARQ (SQ (NP (NNP United)(NP (NNPS States)(NNP President)))(VP (VBD had)(VP (VBD dreamed)(SBAR (IN that)(S (NP he)(VP (VBD was)(VP assassinated)))))))(. ?))) |ET| 
-0.53647898786694814265985087331501  |BT| (SBARQ (WHNP what)(SBARQ (SQ (VBP do)(SQ (NP players)(VP (VB try)(S (TO to)(VP (VBP do)(SBAR (WHADVP when)(S (NP (DT the)(NN music))(VP (VB stops)(PP (IN in)(NP (NP (DT a)(NN game))(PP (IN of)(NP (JJ musical)(NN chairs)))))))))))))(. ?))) |ET| 
0.84410315342038932939772166719195  |BT| (SBARQ (WHNP (WDT what)(NN dummy))(SBARQ (SQ (VBD received)(NP (DT an)(NP (NP (JJ honorary)(NN degree))(PP (IN from)(NP (NNP Northwestern)(NNP University))))))(. ?))) |ET| 
-1  |BT| (SBARQ (WHNP (WDT what)(NN crop))(SBARQ (SQ (VBZ failure)(SQ (VBD caused)(NP (DT the)(NP (NNP Irish)(NNP Famine)))))(. ?))) |ET| 
1  |BT| (SBARQ (WHNP what)(SBARQ (SQ (VBZ is)(NP (NP (DT the)(NN name))(PP (IN of)(NP (NP (DT the)(NP (VBG managing)(NN director)))(PP (IN of)(NP (NNP Apricot)(NNP Computer)))))))(. ?))) |ET| 
-1  |BT| (SBARQ (WHNP what)(SBARQ (SQ (VBZ 's)(NP (NP (DT the)(NN name))(PP (IN of)(NP (NP (DT a)(NP (NN golf)(NN course)))(PP (IN in)(NP (NNP Myrtle)(NNP Beach)))))))(. ?))) |ET| 
1  |BT| (SBARQ (WHNP (WDT what)(NN state))(SBARQ (SQ (VBZ does)(SQ (NP (NNP Martha)(NNP Stewart))(VP (VB live)(PP in))))(. ?))) |ET| 
-1  |BT| (SBARQ (WHNP (WDT what)(NP (CD four)(NNS forms)))(SBARQ (SQ (VBZ does)(SQ (NP gold)(VP (VB occur)(PP in))))(. ?))) |ET| 
1  |BT| (SBARQ (WHNP what)(SBARQ (SQ (VBZ 's)(NP (NP (DT the)(NP (JJS longest)(NN river)))(PP (IN in)(NP (DT the)(NN world)))))(. ?))) |ET| 
-1  |BT| (SBARQ (WHNP what)(SBARQ (SQ (VBZ is)(NP (NP (DT an)(NP (NP example)(PP (IN of)(NP (DT an)(NP (JJ actual)(NN case))))))(PP (IN of)(S (VBG using)(NP (DT the)(NP (NNP Fourteenth)(NNP Amendment)))))))(. ?))) |ET| 
0.9026352353872398870393567449355  |BT| (SBARQ (WHNP (WDT what)(NP (NNP U.S.)(NNP President)))(SBARQ (SQ (VBD showed)(SQ (NP (NP (DT a)(NN fondness))(PP (IN for)(S (VBG munching)(PP (IN on)(NP (JJ bee)(NN pollen))))))(VP bars)))(. ?))) |ET| 
-1  |BT| (SBARQ (WHNP (WHNP (WDT what)(NN product))(PP (IN on)(NP (DT the)(NN market))))(SBARQ (SQ (VBZ is)(NP (ADJP (JJ good)(PP (IN for)(NP (VBG hiding)(NN facial))))(NN scars)))(. ?))) |ET| 
0.91867336678275735017962233541766  |BT| (SBAR (WHNP which)(S (PP (IN of)(NP (DT the)(NP (JJ following)(NNS men))))(S (VP (VBD was)(VP (RB not)(VP (VBN married)(PP (TO to)(NP (NNP Rita)(NNP Hayworth))))))(. ?)))) |ET| 
-1  |BT| (NP (WHNP what)(S (VBG golfing)(S (VBZ accessory)(VP (VBD was)(VP (VBN patented)(PP (IN by)(NP (NP (NNP George)(NNP Grant))(PP (IN on)(NP (NNP December)(CD 12)))))))))) |ET| 
0.88744724545914233093668599394732  |BT| (SBARQ (WHNP (WDT what)(NP (NN company)(S (VBZ is)(S (VBG being)(S (VBN bought)(PP (IN by)(NP Yahoo)))))))(SBARQ (CC and)(SBARQ (WHADVP (WRB how)(RB much))(SBARQ (SQ (VBZ is)(NP (DT the)(NP (NN deal)(NN worth))))(. ?))))) |ET| 
-1  |BT| (SBARQ (WHADVP why)(SBARQ (SQ (VBD did)(SQ (NP (DT the)(NN chicken))(VP (VB cross)(NP (DT the)(NN road)))))(. ?))) |ET| 
1  |BT| (SBARQ (WHNP (WP$ whose)(NN cover))(SBARQ (SQ (VBZ is)(NP (NP that)(PP (IN of)(NP (NP (DT an)(NN employee))(PP (IN of)(NP (NP (NNP Universal)(NNP Import))(NP (CC and)(NNP Export))))))))(. ?))) |ET| 
-1  |BT| (SBARQ (WHNP what)(SBARQ (SQ (VBZ is)(NP (NP (DT the)(NN difference))(PP (IN between)(NP (NNP Neoclassical)(NP (NN art)(NP (CC and)(NP (NNP Romanticism)(NN art))))))))(. ?))) |ET| 
0.92715430478774074618542044845526  |BT| (SBARQ (WHNP (WDT what)(NN sea))(SBARQ (SQ (VBD did)(SQ (NP (DT the)(NNP Romans))(VP (VB call)(NP (JJ mare)(NN nostrum)))))(. ?))) |ET| 
-1  |BT| (SBARQ (WHNP (WDT which)(NP (JJ killer)(NN whale)))(SBARQ (SQ (VBD died)(SQ (PP (IN at)(NP (NNP Sea)(NNP World)))(PP (IN of)(NP (DT a)(NP (JJ fungal)(NN infection))))))(. ?))) |ET| 
1  |BT| (SBARQ (WHNP what)(SBARQ (SQ (VBZ is)(NP (NP (DT the)(NN speed))(PP (IN of)(NP (DT the)(NP (NNP Mississippi)(NNP River))))))(. ?))) |ET| 
-1  |BT| (SBARQ (WHNP what)(SBARQ (SQ (VBZ is)(NP (NP (DT the)(NP (NP (JJ historical)(NN relationship))(PP (IN of)(NP (NNP Catholic)(NNP Church)))))(NP (CC and)(NNS bingo))))(. ?))) |ET| 
1  |BT| (SBARQ (WHNP (WHNP (WHADJP (WRB how)(JJ many))(NNS people))(PP (IN on)(NP (DT the)(NN ground))))(SBARQ (SQ (VBD were)(SQ (VBD killed)(SQ (PP (IN from)(NP (NP (NP (DT the)(NN bombing))(PP (IN of)(NP (NNP Pan)(NNP Am))))(NP (NNP Flight)(CD 103))))(PP (IN over)(NP (NAC (NNP Lockerbie)(NAC (, ,)(NAC (NNP Scotland)(NAC (, ,)(NAC (NNP December)(NAC (CD 21)(, ,)))))))(NN CD))))))(. .))) |ET| 
-1  |BT| (SBARQ (WHNP (WDT what)(NN letter))(SBARQ (SQ (VBZ is)(NP (PP (TO to)(NP (DT the)(NN right)))(PP (IN of)(NP (NP K)(PP (IN on)(NP (DT a)(NP (JJ typewriter)(NN keyboard))))))))(. ?))) |ET| 
1  |BT| (SBARQ (WHNP what)(SBARQ (SQ (VBZ does)(SQ (NP (DT an)(NP (JJ average)(NN daycare)))(VP (VB provider)(VP (VB get)(VP (VBN paid)(PP (IN in)(NP (NNP New)(NNP England))))))))(. ?))) |ET| 
-1  |BT| (SBARQ (WHNP what)(SBARQ (SQ (VBZ does)(SQ (NP (DT the)(NN word))(VP (VB camaro)(VP (VB mean)(VP (, ,)(PP (IN from)(NP (DT the)(NP (NP (JJ GM)(NN car))(NP (DT the)(NNP Camaro))))))))))(. ?))) |ET| 
0.81817838712436574688524615339702  |BT| (SBARQ (WHNP (WDT which)(NP (NNP Bloom)(NNP County)))(SBARQ (SQ (VBZ resident)(NP (NP (JJ wreaks)(NN havoc))(PP (IN with)(NP (DT a)(NN computer)))))(. ?))) |ET| 
-1  |BT| (SBARQ (WHNP (WDT what)(NN holidays))(SBARQ (SQ (VBP are)(SQ (VBD celebrated)(PP (IN in)(NP Ireland))))(. ?))) |ET| 
0.52818383398969792619226382157649  |BT| (SBARQ (WHADVP when)(SBARQ (SQ (VBD did)(NP (DT the)(NP (NNP Dow)(NP (JJ first)(NN reach)))))(. ?))) |ET| 
-1  |BT| (SBARQ (WHADVP how)(SBARQ (SQ (VBD did)(NP (NP (NP (NP (NN shipyard)(NN inspector))(NP (NNP James)(NP (NNP J.)(NNP Kilroy))))(NP (JJ designate)(NN equipment)))(PP (IN as)(NP (VBG being)(NN satisfactory)))))(. ?))) |ET| 
0.84462554280393964400985851170844  |BT| (SBARQ (WHNP (WDT what)(NN organization))(SBARQ (SQ (VBD was)(VP (VBN founded)(PP (IN by)(NP (NP (DT the)(NN Rev.))(NP (NNP Jerry)(NNP Falwell))))))(. ?))) |ET| 
-0.56149042404267257566630178189371  |BT| (SBAR (WHADVP where)(S (VP (VBP do)(VP (VB chihuahuas)(VP (VB come)(PP from))))(. ?))) |ET| 
1  |BT| (SBARQ (WHNP (WDT what)(NP (JJ Russian)(NN seaport)))(SBARQ (SQ (VBZ has)(NP (DT a)(NP (NP (NN name)(NN meaning))(NP (NP (`` ``)(NNP Lord))(PP (IN of)(NP (DT the)(NP (NNP East)('' ''))))))))(. ?))) |ET| 
-0.97581191122456345521385401298176  |BT| (SBARQ (WHNP what)(SBARQ (SQ (VBZ 's)(NP (NP (DT the)(NN meaning))(PP (IN of)(NP (NP (DT the)(NP (JJ Latin)(NN battle)))(NP (JJ cry)(NP (: :)(NP (NNP Ad)(NP (JJ arma)(NP (, ,)(NP (NN ad)(NN arma)))))))))))(. .))) |ET| 
0.82595625183754628473309367109323  |BT| (SBARQ (WHADVP where)(SBARQ (SQ (VBP do)(SQ (NP hyenas)(VP live)))(. ?))) |ET| 
-1  |BT| (SBARQ (WHADVP how)(SBARQ (SQ (VBD did)(SQ (NP (NNP Jayne)(NNP Mansfield))(VP die)))(. ?))) |ET| 
1  |BT| (SBARQ (WHNP what)(SBARQ (SQ (VBD was)(NP (JJ American)(NP (NP (JJ folk)(NN hero))(NP (NP (NNP John)(NP (NNP Chapman)(POS 's)))(NN nickname)))))(. ?))) |ET| 
-0.65954777905771844181970209319843  |BT| (SBARQ (WHNP what)(SBARQ (SQ (VBZ does)(SQ (NP (DT the)(NP (NNP Georgetown)(NP (`` ``)(NP (NNP Hoya)('' '')))))(VP mean)))(. ?))) |ET| 
0.85672130423069525750889852133696  |BT| (NP (WHNP who)(S (VBN danced)(PP (IN into)(NP (NP stardom)(SBAR (IN with)(S (NP (NP (NNP Fred)(NNP Astaire))(PP (IN in)(NP 1941's)))(S (NP You)(S (VP (MD 'll)(VP (VB Never)(NP (NNP Get)(NNP Rich))))(. ?))))))))) |ET| 
-0.79958873672384500608245616604108  |BT| (SBARQ (WHNP what)(SBARQ (SQ (VBZ makes)(NP (NP (JJ hamburgers)(NN taste))(PP (IN like)(NP steakburgers))))(. ?))) |ET| 
0.69963029886357730458001924489508  |BT| (SBARQ (WHNP (WHADJP (WRB how)(JJ much))(NN money))(SBARQ (SQ (VBZ does)(SQ (NP (DT a)(NP (ADJP (RB back)(JJ injury))(NN lawsuit)))(VP get)))(. ?))) |ET| 
-0.99738077053312346187396997265751  |BT| (NP (VB name)(NP (NP (DT a)(NN movie))(SBAR (IN about)(S (NP (DT the)(NP (NNP Sioux)(NNPS Indians)))(S (VP (VBG starring)(NP (NNP Kevin)(NNP Costner)))(. .)))))) |ET| 
1  |BT| (SBARQ (WHNP what)(SBARQ (SQ (VBZ is)(NP (NP (DT the)(NP (JJS oldest)(NN website)))(PP (IN on)(NP (DT the)(NN Internet)))))(. ?))) |ET| 
-1  |BT| (SBARQ (WHNP what)(SBARQ (SQ (VBD was)(NP (DT the)(NP (NNP Chivington)(NNP Massacre))))(. ?))) |ET| 
1  |BT| (S (VP (VB name)(NP (DT the)(NP (NP (JJ various)(NP (JJ costumed)(NN personas)))(PP (IN of)(NP (NNP Dr.)(NP (NNP Henry)(NNP Pym)))))))(. .)) |ET| 
-0.70613344964799629188689777947729  |BT| (SBARQ (WHNP what)(SBARQ (SQ (VBZ is)(SQ (NP (NP (NP (DT the)(NN belt))(PP (IN of)(NP (JJ low)(NN pressure))))(PP (IN around)(NP (DT the)(NN equator))))(VP called)))(. ?))) |ET| 
0.91766892857020909701759592280723  |BT| (SBARQ (WHPP (IN in)(WHNP (WDT what)(NN year)))(SBARQ (SQ (VBD did)(NP (NNP Ireland)(NP (JJ elect)(NP (PRP$ its)(NP (JJ first)(NP (NN woman)(NN president)))))))(. ?))) |ET| 
-0.98262660443699756385171895090025  |BT| (SBARQ (WHPP (IN in)(WHNP (WDT what)(NN sport)))(SBARQ (SQ (VBP are)(SQ (NP (DT these)(NP (JJ following)(NNS numbers)))(VP (VB relevant)(NP (: :)(NP (NAC (CD 118)(NAC (, ,)(NAC (CD 126)(NAC (, ,)(NAC (CD 134)(NAC (, ,)(NAC (CD 142)(NAC (, ,)(NAC (CD 15)(NAC (, ,)(NAC (CD 158)(NAC (, ,)(NAC (CD 167)(NAC (, ,)(NAC (CD 177)(, ,))))))))))))))))(NP (CC and)(CD 19)))))))(. ?))) |ET| 
1  |BT| (SBARQ (WHNP what)(SBARQ (SQ (VBZ is)(NP (DT the)(NP (NP (JJS highest)(NN mountain))(PP (IN in)(NP (DT the)(NN world))))))(. ?))) |ET| 
-1  |BT| (SBARQ (WHNP what)(SBARQ (SQ (VBZ is)(NP (DT the)(NP (NP (JJS longest)(NN word))(PP (IN in)(NP (DT the)(NP (JJ English)(NN language)))))))(. ?))) |ET| 
0.85914117311725901604546606904478  |BT| (SBARQ (WHADVP where)(SBARQ (SQ (VBZ is)(SQ (NP (NP (DT the)(NN actress))(NP (NP (, ,)(NP (NNP Marion)(NNP Davies)))(, ,)))(VP buried)))(. ?))) |ET| 
-0.8451751172927585153971108411497  |BT| (SBARQ (WHADVP why)(SBARQ (SQ (VBZ is)(NP (ADJP (JJ poop)(ADJP (RB sometimes)(JJ different)))(NNS colors)))(. ?))) |ET| 
1  |BT| (SBARQ (WHNP who)(SBARQ (SQ (VBD kept)(NP (NP (DT the)(NP (ADJP (RBS most)(JJ famous))(NN diary)))(PP (IN in)(NP (DT the)(NP (JJ English)(NN language))))))(. ?))) |ET| 
-1  |BT| (SBARQ (WHNP (WHNP (WDT what)(NN kind))(PP (IN of)(NP animals)))(SBARQ (SQ (VBD were)(PP (IN in)(NP (DT the)(NP (NNP Paleozoic)(NN era)))))(. ?))) |ET| 
1  |BT| (SBARQ (WHNP what)(SBARQ (SQ (NP (NP (NN organization)(POS 's))(NNS offices))(VP (VBD were)(VP (VBN broken)(PP (IN into)(NP (PP (IN at)(NP Watergate))(PP (IN in)(NP 1972)))))))(. ?))) |ET| 
-1  |BT| (SBARQ (WHADVP how)(SBARQ (SQ (MD can)(SQ (NP (PRP$ your)(NN school))(VP (VB march)(PP (IN in)(NP (NP (DT the)(NP (NNP Macy)(POS 's)))(NP (NNP Thanksgiving)(NNP Parade)))))))(. ?))) |ET| 
1  |BT| (SBARQ (WHNP (WDT what)(NN country))(SBARQ (SQ (VBP do)(SQ (NP (DT the)(NP (NNP Galapagos)(NNPS Islands)))(VP (VB belong)(PP to))))(. ?))) |ET| 
-1  |BT| (SBARQ (WHNP (WDT what)(NN sport))(SBARQ (SQ (VBP do)(SQ (NP you)(VP (VB shag)(VP (VB flies)(PP in)))))(. ?))) |ET| 
1  |BT| (SBARQ (WHNP (WHNP (WDT what)(NN state))(PP (IN in)(NP (DT the)(NNP U.S.))))(SBARQ (SQ (VBZ has)(NP (DT the)(NP (JJS most)(NNS blacks))))(. ?))) |ET| 
-0.97640070054809291466568765827105  |BT| (SBARQ (WHNP what)(SBARQ (SQ (VBZ 's)(NP (NP (DT the)(NP (ADJP (RBS most)(JJ commonly-spoken))(NN language)))(PP (IN in)(NP Belgium))))(. ?))) |ET| 
0.59913830430590642173172000184422  |BT| (SBARQ (WHADVP (WRB how)(RB much))(SBARQ (SQ (VBZ does)(SQ (NP (NP (DT a)(NP (JJ new)(NN railroad)))(NP (JJ coal)(NN car)))(VP cost)))(. ?))) |ET| 
-1  |BT| (SBARQ (WHPP (IN in)(WHNP (WDT what)(NN medium)))(SBARQ (SQ (VBZ is)(SQ (NP (NNP Stuart)(NNP Hamblen))(VP (VBN considered)(S (TO to)(VP (VB be)(NP (DT the)(NP (JJ first)(NP (VBG singing)(NN cowboy)))))))))(. ?))) |ET| 
1  |BT| (SBARQ (WHNP what)(SBARQ (SQ (VBZ is)(NP (NP (DT the)(NN speed))(PP (IN of)(NP (DT the)(NP (NNP Mississippi)(NNP River))))))(. ?))) |ET| 
-1  |BT| (SBARQ (WHNP what)(SBARQ (SQ (VBZ is)(NP (NP (DT the)(NN origin))(PP (IN of)(NP (NP (DT the)(NN expression))(NP (`` ``)(NP (NP tout)(PP (IN de)(NP (NN suite)('' '')))))))))(. ?))) |ET| 
0.69486328721991164059090806404129  |BT| (SBAR (WHPP (IN in)(WHNP (WDT What)(NN city)))(S (NP (CC or)(NN state))(S (VP (VBP do)(SBAR (NP (DT the)(NP (ADJP (RBS most)(JJ gay))(NNS men)))(VP (VB live)(PP in))))(. ?)))) |ET| 
-1  |BT| (SBARQ (WHNP (WDT what)(NN sign))(SBARQ (SQ (VBZ is)(SQ (NP (NP (DT The)(NP (NNP Water)(NNP Carrier)))(NP (DT the)(NP (JJ zodiacal)(NN symbol))))(PP for)))(. ?))) |ET| 
0.85140915890274504462809090910014  |BT| (SBARQ (WHNP (WDT what)(NN President-to-be))(SBARQ (SQ (VBD was)(SQ (NP (DT the)(NP (JJ first)(NN member)))(VP (PP (IN of)(NP Congress))(S (TO to)(VP (VB enlist)(VP (VBG following)(NP (NP (DT the)(NN attack))(PP (IN on)(NP (NNP Pearl)(NNP Harbor))))))))))(. ?))) |ET| 
-0.89708564306675986355088525669998  |BT| (S (VP (VB name)(NP (NP (DT the)(NP (NN operating)(NN system)))(SBAR (WHNP that)(S (VBZ runs)(PP (IN on)(NP (JJ IBM-compatible)(NNS machines)))))))(. .)) |ET| 
0.83113771190875163075162390668993  |BT| (SBARQ (WHNP (WDT what)(NN city))(SBARQ (SQ (VBZ is)(SQ (NP (NNP Logan)(NN Airport))(PP in)))(. ?))) |ET| 
-1  |BT| (SBARQ (WHNP (WDT what)(NP (NN card)(NN game)))(SBARQ (SQ (VBZ has)(SQ (VBZ variations)(SQ (VBD called)(NP (NNP Canfield)(NP (, ,)(NP (NNP Klondike)(NP (CC and)(NNP Spider))))))))(. ?))) |ET| 
0.79832252699377914684220058916253  |BT| (SBARQ (WHADVP where)(SBARQ (SQ (MD can)(SQ (NP I)(VP (VB find)(NP (NP (DT a)(NP (`` ``)(NP (NNP Fifth)(NNP Element))))(NP ('' '')(NN screensaver))))))(. ?))) |ET| 
-1  |BT| (SBARQ (WHADVP why)(SBARQ (SQ (VBD did)(SQ (NP (DT the)(NN world))(VP (VB enter)(NP (NP (DT a)(NP (JJ global)(NN depression)))(PP (IN in)(NP 1929))))))(. ?))) |ET| 
0.88288494491791191798313320759917  |BT| (SBARQ (WHNP (WDT what)(NP (JJ American)(NP (NNP League)(NP (NN baseball)(NN team)))))(SBARQ (SQ (VBZ 's)(SQ (NP (NP (JJS worst)(NN finish))(PP (IN between)(NP (CD 1926)(NP (CC and)(CD 1964)))))(VP (VBD was)(ADJP fourth))))(. ?))) |ET| 
-0.89634218468370829846492142678471  |BT| (SBARQ (WHNP (WHNP (WDT what)(NN kind))(PP (IN of)(NP books)))(SBARQ (SQ (VBZ does)(SQ (NP (NNP Fodor)(POS 's))(VP publish)))(. ?))) |ET| 
0.74854082995120263532839999243151  |BT| (SBARQ (WHADVP when)(SBARQ (SQ (VBD did)(SQ (NP (NP (DT the)(NN royal))(PP (VBG wedding)(PP (IN of)(NP (NP (NNP Prince)(NNP Andrew))(NP (CC and)(NNP Fergie))))))(VP (VB take)(NP place))))(. ?))) |ET| 
-1  |BT| (SBARQ (WHADVP how)(SBARQ (SQ (MD can)(SQ (NP I)(VP (NP (NP (JJ transport)(NN files))(PP (IN from)(NP (CD one)(NN computer))))(PP (TO to)(NP another)))))(. ?))) |ET| 
0.81458203284691788059745931604994  |BT| (SBARQ (WHNP (WHADJP (WRB how)(JJ many))(NNS revolutions))(SBARQ (SQ (VBZ does)(SQ (NP (DT a)(NP (JJ standard)(NN LP)))(VP (VB make)(PP (IN in)(NP (CD three)(NNS minutes))))))(. ?))) |ET| 
-0.87673977507658418240055198111804  |BT| (SBARQ (WHNP what)(SBARQ (SQ (VBZ does)(SQ (NP (DT the)(NP (NNP six-footed)(NNP Musca)))(VP (VB domestica)(VP (VB become)(SBAR (WHADVP when)(S (NP it)(VP (VBZ enters)(NP (DT a)(NN house)))))))))(. ?))) |ET| 
0.65125861929503137126573619752889  |BT| (SBARQ (WHNP (WDT what)(NP (NNP Texas)(NN city)))(SBARQ (SQ (VBD got)(NP (NP (PRP$ its)(NN name))(PP (IN from)(NP (DT the)(NP (NP Spanish)(PP (IN for)(NP (`` ``)(NP (NN yellow)('' '')))))))))(. ?))) |ET| 
-1  |BT| (SBARQ (WHNP what)(SBARQ (SQ (VBD was)(NP (NP (DT the)(NN name))(PP (IN of)(NP (DT the)(NP (`` ``)(NP (JJ Little)(NP (NNP Rascals)(NP ('' '')(NN dog)))))))))(. ?))) |ET| 
0.75903037656435790037079414105392  |BT| (SBARQ (WHNP (WP$ whose)(NP (JJ first)(NP (JJ presidential)(NN order))))(SBARQ (SQ (VBD was)(SQ (: :)(S (`` ``)(S (NP (NNP Let)(POS 's))(VP (VB get)(NP (NP (DT this)(NP (JJ goddamn)(NN thing)))(NP (NN airborne)('' ''))))))))(. ?))) |ET| 
-1  |BT| (SBARQ (WHNP (WDT what)(NN cocktail))(SBARQ (SQ (VBP do)(SQ (NP you)(VP (VB concoct)(PP (IN with)(NP (JJ whisky)(NP (CC and)(NP (JJ sweet)(NN vermouth))))))))(. ?))) |ET| 
0.89881475454048453954669639642816  |BT| (SBARQ (WHNP (WHNP which)(PP (IN of)(NP (DT the)(NN following))))(SBARQ (SQ (VBD was)(NP (NNP Rhodes)(NNP Scholar)))(. ?))) |ET| 
-1  |BT| (SBARQ (WHNP what)(SBARQ (SQ (VBD was)(SQ (VBD introduced)(SQ (ADVP commercially)(VP (PP (IN by)(NP (NNP Bayer)(NNP A.G.)))(PP (IN of)(NP (NNP Leverkusen)(NP (, ,)(PP (IN in)(NP 1899)))))))))(. ?))) |ET| 
1  |BT| (SBARQ (WHADVP where)(SBARQ (SQ (VBP are)(SQ (NP (DT the)(NP (JJ leading)(NP (JJ medical)(NNS groups))))(VP (VBG specializing)(PP (IN in)(NP (JJ lung)(NNS diseases))))))(. ?))) |ET| 
-1  |BT| (WHNP (WDT what)(NP (NP (NN movie)(NN tour))(SBAR (IN of)(S (NP (DT the)(NP (JJ Roman)(NP (JJ empire)(NNS features))))(S (NP (DT the)(NN admonition))(S (: :)(S (`` ``)(S (NP Row)(S (ADVP well)(S (CC and)(S (VP (VB live)('' ''))(. ?)))))))))))) |ET| 
0.63643849288117160245548120656167  |BT| (SBARQ (WHNP who)(SBARQ (SQ (VBP do)(SQ (NP (NNP Herb)(NP (CC and)(NNP Tootsie)))(VP (VB live)(VP (NP (JJ next)(NN door))(PP to)))))(. ?))) |ET| 
-1  |BT| (SBARQ (WHADVP how)(SBARQ (SQ (VBP do)(SQ (NP I)(VP (VB get)(NP (NP (DT another)(NP (NN city)(POS 's)))(NN newspaper)))))(. ?))) |ET| 
1  |BT| (SBARQ (WHNP who)(SBARQ (SQ (VBD was)(SQ (VBD named)(NP (NP (NNP Admiral)(NP (NP (PP (IN of)(NP (NP (DT the)(NP (NNP Ocean)(NNP Seas)))(NP (CC and)(NP (NNP Viceroy)(NP (CC and)(NP (NNP Governor)(NNP General)))))))(SBAR (IN of)(S (NP (DT all)(NP (DT the)(NN islands)))(S (NP he)(S (VP (MD might)(VP (VB discover)(S (, ,)(S (CC and)(S (ADVP also)(S (VP (VBD granted)(NP 10-))(. ?)))))))(. ?))))))(PP (IN of)(NP (DT all)(NNS profits)))))(PP (IN of)(NP (PRP$ his)(NN voyage))))))(. .))) |ET| 
-1  |BT| (SBARQ (WHNP (WDT what)(NP (NN field)(NN sport)))(SBARQ (SQ (VBD did)(SQ (NP (JJ dentist)(NP (NNP William)(NNP Beers)))(VP (VB promote)(VP (CC and)(VP (VB write)(NP (NP (DT a)(NP (JJ standard)(NN book)))(PP (IN of)(NP (NNS rules)(PP for)))))))))(. ?))) |ET| 
0.80713591292198783033740028258762  |BT| (SBARQ (WHNP (WDT what)(NN TV))(SBARQ (SQ (NP (NP (NN comediennes)(POS 's))(NNS characters))(VP (VBP include)(S (NP (JJ former)(NP (NN movie)(NN star)))(S (NP (NNP Nora)(NNP Desmond))(S (, ,)(S (NP (NN secretary)(NP (NNP Mrs.)(NNP Wiggins)))(S (CC and)(S (NP (DT a)(NN housewife))(VP (VBN named)(NP Eunice))))))))))(. ?))) |ET| 
-1  |BT| (SBARQ (WHNP (WDT what)(NN color))(SBARQ (SQ (VBD were)(NP (PRP$ their)(NN horses)))(. ?))) |ET| 
0.84505155817438848409040019760141  |BT| (SBARQ (WHADVP when)(SBARQ (SQ (VBD did)(SQ (NP CNN)(VP (VB begin)(VP broadcasting))))(. ?))) |ET| 
-1  |BT| (SBARQ (SQ (NP CNN)(VP (VBZ is)(VP (NP (DT the)(NN abbreviation))(WHPP (IN for)(WHNP what)))))(. ?)) |ET| 
0.84100475387201756305444177996833  |BT| (SBARQ (WHNP (WDT what)(NN country))(SBARQ (SQ (VBP are)(SQ (NP (NNP Godiva)(NNP chocolates))(PP from)))(. ?))) |ET| 
-0.45602402206178843657724542026699  |BT| (SBARQ (WHNP what)(SBARQ (SQ (VBP are)(SQ (NP (DT the)(NNS powers))(VP (CC and)(VP (VB weaknesses)(SBAR (IN of)(S (NP (NNP Green)(NP (NNP Lantern)(POS 's)))(VP ring)))))))(. ?))) |ET| 
1  |BT| (SBARQ (WHNP what)(SBARQ (SQ (VBZ is)(NP (NP (DT the)(NP (JJS best)(NN college)))(PP (IN in)(NP (DT the)(NN country)))))(. ?))) |ET| 
-1  |BT| (SBARQ (WHADVP how)(SBARQ (SQ (VBD did)(SQ (NP (NP (DT the)(NN tradition))(PP (IN of)(NP (JJS best)(NN man))))(VP start)))(. ?))) |ET| 
0.70392413310247814450804071384482  |BT| (SBARQ (WHNP (WDT what)(NP (NNP U.S.)(NP (NN state)(NN borders))))(SBARQ (SQ (NP Illinois)(PP (TO to)(NP (DT the)(NN north))))(. ?))) |ET| 
-0.66404868296712526998248904419597  |BT| (SBARQ (WHNP what)(SBARQ (SQ (VBZ is)(NP (DT a)(NP (NNP Certified)(NP (NNP Nurse)(NNP Midwife)))))(. ?))) |ET| 
1  |BT| (SBARQ (WHADVP where)(SBARQ (SQ (MD can)(SQ (NP I)(VP (VB find)(VP (NP (DT a)(NP (NN person)(POS 's)))(VP (VB address)(PP (IN from)(NP (DT a)(NP (NN telephone)(NN number)))))))))(. ?))) |ET| 
-0.90945734731147198637302153656492  |BT| (NP (VB name)(NP (NP (DT the)(NP (JJ soft)(NN drink)))(SBAR (WHNP that)(S (VBZ is)(S (`` ``)(S (NP (NP (NN number)(NN one))(PP (IN in)(NP (DT the)(NN sun))))(S (. .)('' '')))))))) |ET| 
0.68881547510671858880471063457662  |BT| (SBARQ (WHNP what)(SBARQ (SQ (NP (NNP Nevada)(NN center))(VP (VBZ has)(VP (VBN been)(VP (VBN dubbed)(VP (NP (DT The)(NP (NNP Biggest)(NP (NNP Little)(NNP City))))(PP (IN in)(NP (DT the)(NNP World))))))))(. ?))) |ET| 
-0.95932238572577110957695367687847  |BT| (SBARQ (WHNP (WDT what)(NN shrubs))(SBARQ (SQ (MD can)(VP (VB be)(VP (VBD planted)(SBAR (WHNP that)(S (MD will)(VP (VB be)(VP (VB safe)(PP (IN from)(NP deer)))))))))(. ?))) |ET| 
0.7405697362227398050649185279326  |BT| (SBARQ (WHNP (WDT what)(NP (JJ classical)(NP (JJ Spanish)(NN writer))))(SBARQ (SQ (VBD warned)(SQ (: :)(S (`` ``)(S (NP (DT All)(NP (DT that)(NN glitters)))(VP (VBZ is)(ADJP (RB not)(ADJP (JJ gold)('' ''))))))))(. ?))) |ET| 
-1  |BT| (SBARQ (WHNP (WDT what)(NP (NN board)(NN game)))(SBARQ (SQ (VBZ does)(SQ (NP (DT a)(NP (`` ``)(NP (NN wood-pusher)('' ''))))(VP (VB play)(ADVP poorly))))(. ?))) |ET| 
0.49288491387055510806192160089267  |BT| (SBARQ (WHNP (WDT what)(NN city))(SBARQ (SQ (VBZ boasts)(NP (NP (NNP Penn)(POS 's))(NP (NNP Landing)(NP (, ,)(NP (PP (IN on)(NP (DT the)(NNS banks)))(PP (IN of)(NP (DT the)(NP (NNP Delaware)(NN river)))))))))(. ?))) |ET| 
-1  |BT| (SBARQ (WHNP what)(SBARQ (SQ (VBD did)(SQ (NP (NP (DT the)(NP (ADJP (RB only)(VBN repealed))(NN amendment)))(PP (TO to)(NP (DT the)(NP (NNP U.S.)(NNP Constitution)))))(VP (VB deal)(PP with))))(. ?))) |ET| 
0.7649740017563364524733060534345  |BT| (SBARQ (WHADVP (WRB how)(RB long))(SBARQ (SQ (VBZ does)(SQ (NP it)(VP (VB take)(VP (PP (IN for)(NP (PRP$ your)(NN blood)))(S (TO to)(VP (VB make)(NP (NP (CD one)(NP (JJ complete)(NN trip)))(PP (IN through)(NP (DT the)(NN body))))))))))(. ?))) |ET| 
-0.72160553496231294445806270232424  |BT| (SBARQ (WHADVP why)(SBARQ (SQ (VBP are)(SQ (NP (JJ electric)(NNS cars))(ADJP (RBR less)(ADJP (JJ efficient)(PP (IN in)(NP (NP (DT the)(NN northeast))(PP (IN than)(PP (IN in)(NP California)))))))))(. ?))) |ET| 
0.41864969900904058786039740880369  |BT| (SBARQ (WHNP (WDT what)(NN year))(SBARQ (SQ (VBD did)(SQ (NP (DT the)(NP (NNP United)(NNPS States)))(VP (VB pass)(NP (DT the)(NP (NNP Copyright)(NN law))))))(. ?))) |ET| 
-1  |BT| (SBARQ (WHNP (WHNP (WDT what)(NN part))(PP (IN of)(NP (PRP$ your)(NN body))))(SBARQ (SQ (VBZ contains)(NP (DT the)(NP (JJ corpus)(NN callosum))))(. ?))) |ET| 
0.71637080711256173604084551698179  |BT| (SBARQ (WHNP who)(SBARQ (SQ (VBZ sings)(NP (NP (NP (DT the)(NN song))(PP (NP (`` ``)(NP (NNP Drink)(NP (PP (TO to)(NP me))(PP (IN with)(NP (JJ thine)(NNS eyes))))))('' '')))(PP (IN by)(NP (NNP Ben)(NNP Johnson)))))(. ?))) |ET| 
-0.91195955988279708837040971047827  |BT| (SBARQ (WHNP what)(SBARQ (SQ (VBZ 's)(NP (NP (NP (DT the)(NP (JJ only)(NN color)))(NP (NNP Johnny)(NP (NNP Cash)(NNP wears))))(PP (IN on)(NP stage))))(. ?))) |ET| 
0.64038710960244416003916967383702  |BT| (SBARQ (WHNP (WHADJP (WRB how)(JJ many))(NN home))(SBARQ (SQ (VBZ runs)(SQ (VBD did)(SQ (NP (NNP Lou)(NNP Gehrig))(VP (VB have)(PP (IN during)(NP (PRP$ his)(NN career)))))))(. ?))) |ET| 
1  |BT| (SBARQ (WHNP what)(SBARQ (SQ (VBZ is)(NP (NP (DT the)(NP (JJS smallest)(NN country)))(PP (IN in)(NP Africa))))(. ?))) |ET| 
-1  |BT| (SBARQ (WHNP what)(SBARQ (SQ (VBZ is)(NP (NP (DT a)(NP (NN language)(NN spoken)))(PP (IN by)(NP (DT the)(NNP Sioux)))))(. ?))) |ET| 
0.85706672563868813163878712657606  |BT| (SBARQ (WHNP (WHNP (WHADJP (WRB how)(JJ many))(NNS layers))(PP (IN of)(NP (JJ yellow)(NN paint))))(SBARQ (SQ (VBZ is)(SQ (NP (NP (DT a)(NP (NNP Faber)(NNP Mongol)))(NP (JJ pencil)(NN lucky)))(VP (RB enough)(VP (TO to)(VP (VB be)(VP (VBN sprayed)(PP with)))))))(. ?))) |ET| 
0.47127662365237366071113456200692  |BT| (NP (VB name)(NP (NP (DT the)(NNP Ranger))(SBAR (WHNP who)(S (VP (VBD was)(VP (ADVP always)(PP (IN after)(NP (NNP Yogi)(NNP Bear)))))(. .))))) |ET| 
-0.86883972200321246681653519772226  |BT| (SBARQ (WHNP (WDT what)(NN poem))(SBARQ (SQ (VBZ contains)(SQ (NP (DT the)(NN line))(VP (, ,)(VP (`` ``)(VP (VB grow)(VP (ADJP old)(SBAR (IN with)(S (NP me)(S (NP (DT the)(JJS best))(VP (VBZ is)(VP (ADVP yet)(S (TO to)(VP (VB be)('' ''))))))))))))))(. .))) |ET| 
0.64909442476623413487146763145574  |BT| (SBARQ (WHADVP when)(SBARQ (SQ (VBD did)(NP (NNP Rococo)(NP (NN painting)(NP (CC and)(NP (NN architecture)(NN flourish))))))(. ?))) |ET| 
